{"layers":[{"out_depth":1,"out_sx":24,"out_sy":24,"layer_type":"input"},{"sx":5,"sy":5,"stride":1,"in_depth":1,"out_depth":8,"out_sx":24,"out_sy":24,"layer_type":"conv","l1_decay_mul":0,"l2_decay_mul":1,"filters":[{"sx":5,"sy":5,"depth":1,"w":{"0":-0.023735475291047605,"1":-0.08862482183643479,"2":-0.5095320860598191,"3":-0.2790550296042061,"4":0.5261082311003032,"5":-0.47012181134805414,"6":-0.2946333262451962,"7":-0.5169185069003474,"8":-0.22389842488984144,"9":-0.2695581084052779,"10":-0.5733855414676954,"11":-0.4347810740264976,"12":-0.4046776652637598,"13":-0.4208953561319915,"14":-0.32901504189691433,"15":-0.4654451401876825,"16":-0.5677207537487808,"17":-0.5813575936313577,"18":-0.6013662573420704,"19":-0.4496060022384892,"20":-0.3973816086933502,"21":-0.593424395243785,"22":-0.5699800364261288,"23":-0.5205631816766207,"24":-0.23552933439686616}},{"sx":5,"sy":5,"depth":1,"w":{"0":0.003826678371545955,"1":-0.2613878187323354,"2":-0.4083022893004682,"3":-0.20772352726199958,"4":-0.2525651826361874,"5":-0.45110962802246013,"6":0.18414375579632722,"7":-0.7449050613976756,"8":-0.1539907331092795,"9":0.5028743906218622,"10":-0.2919873040583127,"11":-0.563721502369414,"12":-0.358276446017924,"13":1.1382919850533701,"14":0.24393487670210795,"15":-0.3477351048626904,"16":-0.5560800362759317,"17":0.5399355385531316,"18":0.20887204789973216,"19":-0.12179430316092774,"20":-0.02849960119574531,"21":-0.0670963252701356,"22":-0.05354517109481142,"23":0.598320294924126,"24":-0.28057497177847357}},{"sx":5,"sy":5,"depth":1,"w":{"0":0.3486074129698718,"1":0.48838207449021476,"2":0.07006145880653551,"3":0.18550805860887434,"4":-0.03103517347326233,"5":-0.5499266503500927,"6":-0.3509968427120971,"7":-0.29415492651952957,"8":-0.42526267677630575,"9":-0.5135111112460867,"10":0.17201527367176808,"11":-0.6276230969683068,"12":-0.6268314015657238,"13":-0.519435009616436,"14":-0.4234488170910703,"15":0.4662339295354832,"16":0.06964119261749337,"17":0.13422685941157209,"18":-0.12261160400195883,"19":-0.32513166106228475,"20":0.24460908907363885,"21":0.37657376214852406,"22":0.28162245709209954,"23":-0.05548375440080903,"24":0.6126404176909424}},{"sx":5,"sy":5,"depth":1,"w":{"0":-0.34286672731899265,"1":-0.37275015093933045,"2":0.15867604307500294,"3":-0.1793877636336105,"4":-0.29874341775207464,"5":-0.48014821371124966,"6":-0.3976533197959918,"7":-0.149354106603807,"8":-0.1385599837654977,"9":-0.08773122213276031,"10":-0.3631781661336234,"11":-0.393133190480842,"12":-0.42890500038851087,"13":-0.19241100309120418,"14":0.016351718718671523,"15":-0.3677172475350183,"16":-0.3905216029572289,"17":-0.4457694707055475,"18":-0.3129820976594735,"19":0.31982412814113115,"20":-0.12732701542055472,"21":-0.3424292611160707,"22":-0.22040972480570925,"23":0.10614837965604865,"24":0.2135662086975508}},{"sx":5,"sy":5,"depth":1,"w":{"0":-0.09396444326934249,"1":-0.09877223017001949,"2":0.1346936977396958,"3":-0.5516953772773211,"4":-0.016557952076799075,"5":-0.09508382655315845,"6":1.1491660334796885,"7":0.5567707519993655,"8":-0.21152037779735333,"9":-0.24347002667659495,"10":-0.2920338590547165,"11":-0.3657001231163588,"12":-0.5259072029258838,"13":-0.6404829519405114,"14":-0.46814205721062047,"15":0.5011739320167266,"16":-0.12498530495817468,"17":0.31912693553169297,"18":0.7984662601887368,"19":-0.024982203512114512,"20":-0.15590849332122622,"21":-0.5120940748263741,"22":-0.3987398011969879,"23":-0.23300560333227502,"24":-0.0683440607269347}},{"sx":5,"sy":5,"depth":1,"w":{"0":0.08026466133935581,"1":-0.23065312109177163,"2":0.5303453607788747,"3":0.12329793232738082,"4":-0.35901126199344247,"5":-0.3517537527684827,"6":-0.27446907293981226,"7":-0.03508490101374861,"8":-0.5376978911365328,"9":-0.25190628259999287,"10":-0.386376195121913,"11":-0.36223597323185575,"12":-0.4960717899103639,"13":-0.09511097132388763,"14":-0.2063766405611687,"15":0.3967354309950628,"16":1.3980484366625185,"17":0.04094569945193068,"18":0.6933410776936528,"19":-0.3266664648299156,"20":-0.06437593785604988,"21":-0.5874466721046161,"22":-0.17164405821579748,"23":-0.30196072297390825,"24":-0.03134448839192913}},{"sx":5,"sy":5,"depth":1,"w":{"0":-0.1087731053959337,"1":-0.5470224547336928,"2":0.7264833830453938,"3":-0.762593547394093,"4":0.013069024871774443,"5":0.40104438558052724,"6":1.5346159208476757,"7":-0.6275885374500068,"8":-0.8061335806044982,"9":-0.26857167249925334,"10":1.010138855540208,"11":0.1902609320165373,"12":-0.3850076572756495,"13":-0.7091104777239498,"14":-0.3781059139857829,"15":-0.08101162298465195,"16":0.43914928083629734,"17":0.2538620127214432,"18":-0.7749686258125963,"19":-0.29222419970248675,"20":-0.24770272053377063,"21":0.6780075437967124,"22":-0.34188809191766173,"23":-0.334244527732674,"24":0.17429418927956175}},{"sx":5,"sy":5,"depth":1,"w":{"0":0.8282548707002366,"1":0.14633433869412352,"2":1.3357126409251672,"3":0.4600745178938806,"4":0.0477516525531204,"5":-0.28275106770720865,"6":-0.3564123757451985,"7":0.5399808432268882,"8":0.2534535194374066,"9":-0.08154407395858235,"10":-0.06828029239752381,"11":-0.026029707633960005,"12":0.13568017866382195,"13":-0.1608463487319449,"14":0.049130468606201544,"15":0.21913889099901424,"16":0.3189510930345801,"17":0.016609457630327534,"18":-0.5976508374513796,"19":-0.469817904505118,"20":0.0259415788986221,"21":-0.027959139133607515,"22":-0.08681388310485985,"23":-0.0712378811401129,"24":-0.206834938230846}}],"biases":{"sx":1,"sy":1,"depth":8,"w":{"0":1.159837971114366,"1":-0.004234488227561289,"2":-0.04141659895349068,"3":0.7745584247207407,"4":-0.006092159513124795,"5":-0.013800917494594113,"6":-0.025934748692616992,"7":-0.09391718078044442}}},{"out_depth":8,"out_sx":24,"out_sy":24,"layer_type":"relu"},{"sx":2,"sy":2,"stride":2,"in_depth":8,"out_depth":8,"out_sx":12,"out_sy":12,"layer_type":"pool"},{"sx":5,"sy":5,"stride":1,"in_depth":8,"out_depth":16,"out_sx":12,"out_sy":12,"layer_type":"conv","l1_decay_mul":0,"l2_decay_mul":1,"filters":[{"sx":5,"sy":5,"depth":8,"w":{"0":0.11710292081448986,"1":0.020742152982429683,"2":-0.07193989751075784,"3":0.09752577101555876,"4":0.09853063118287708,"5":-0.05861907308256778,"6":-0.08154372662808124,"7":-0.007094263648606457,"8":-0.06598373249988397,"9":-0.08168187981296335,"10":-0.12613358447347428,"11":-0.13220481515062027,"12":-0.1606915703595333,"13":-0.0934491364904574,"14":0.036434681151476855,"15":-0.09062244912884834,"16":0.08457232934971586,"17":0.02730168329725542,"18":-0.04049253597655333,"19":-0.0009574085232948933,"20":0.051535277553420154,"21":0.040444043982424,"22":-0.01888504107487947,"23":-0.07424954632839684,"24":0.04526730959114056,"25":0.02025457491908233,"26":0.0038776056001765696,"27":-0.01224131089088664,"28":-0.011481924917838641,"29":-0.12392342149255184,"30":0.03247220432766383,"31":-0.018766021571809236,"32":-0.08051038179220522,"33":0.034588397469880364,"34":-0.11850965265763277,"35":0.013324516177133839,"36":0.014162256294192443,"37":-0.05722739359149448,"38":-0.006002322852628926,"39":-0.0054036288371928165,"40":0.1020381576553849,"41":-0.027113156624041932,"42":0.1692433272901869,"43":-0.013483255115495125,"44":-0.03673271944258384,"45":0.07809249708750823,"46":0.01781951477476766,"47":-0.037463476882551056,"48":-0.0006068914523947443,"49":0.11053278116186856,"50":-0.06332490598367649,"51":0.010030903101260251,"52":0.0479275921296492,"53":-0.08399275936458075,"54":0.007292596334576023,"55":-0.015257230360451977,"56":-0.07627154252324315,"57":-0.07016014822097306,"58":-0.04412392742729021,"59":0.05180690564540375,"60":-0.08654586291577054,"61":-0.06780226060690081,"62":0.06472890466456342,"63":0.011587167315985383,"64":-0.04213300994117932,"65":0.029082875261138324,"66":0.11123910182138286,"67":0.13398745251424093,"68":0.09671256854322406,"69":-0.06978012596968952,"70":-0.10914765251793411,"71":-0.013262903032621383,"72":0.10812019062023277,"73":0.047796422558052554,"74":-0.039687408004272805,"75":0.057670736719794884,"76":-0.020445305906671384,"77":0.21330202095817458,"78":-0.08087184095637458,"79":0.009735540200613632,"80":-0.022879315032923772,"81":0.07349990010790969,"82":-0.04049909988777675,"83":0.028295055418731726,"84":-0.040450843508196256,"85":0.01890113968574303,"86":-0.026836806181077113,"87":-0.01937845722464131,"88":-0.003607065502251394,"89":-0.1620312306066671,"90":0.01478999119032148,"91":-0.028865181506045237,"92":-0.07119293124214204,"93":0.03605424324234178,"94":0.035599901115699606,"95":-0.09859842653962701,"96":0.04420345694613582,"97":-0.025447924574655393,"98":-0.06709404796313978,"99":0.02172535385596414,"100":-0.04168952439619609,"101":-0.22653359667773376,"102":-0.002801345926710133,"103":-0.002874607469627187,"104":0.09804558357459722,"105":-0.05057738634025269,"106":0.05794569120119237,"107":0.08493923042189176,"108":-0.11036588761157513,"109":-0.04248238144541277,"110":-0.0059588576084874285,"111":-0.029872663129320312,"112":0.06384553256213427,"113":-0.05209622416308515,"114":-0.09574353223870498,"115":0.09332735533672676,"116":-0.07315033675880947,"117":-0.03078046786296506,"118":0.00641526392461346,"119":-0.05602068913926517,"120":0.01212552786217659,"121":0.008608012884821681,"122":0.12918758704579314,"123":-0.01674980187146349,"124":-0.12395212900417679,"125":-0.032207719219799764,"126":0.0029113941534135218,"127":-0.11432350675677144,"128":0.03926678108756089,"129":-0.10938926616021301,"130":-0.02125791538175566,"131":-0.01843097658459387,"132":-0.004935344794269708,"133":0.04096624920651019,"134":-0.06475573144272541,"135":-0.11185973501748621,"136":0.005550301981411854,"137":-0.1706599281525882,"138":0.0923655773170753,"139":-0.06132521190176393,"140":-0.010833018980664718,"141":0.019616274017646998,"142":0.054771501000570995,"143":-0.006907826497217604,"144":-0.019988878205883794,"145":0.005419501311885885,"146":-0.051699964812260565,"147":-0.09711805567581043,"148":-0.003962130779482743,"149":0.06123688467406647,"150":-0.05400285728393665,"151":-0.05252414527568666,"152":-0.00628671622923702,"153":0.08109363488683591,"154":-0.04847316894898508,"155":0.1025999523263155,"156":0.04602690288878576,"157":0.014825834747901983,"158":-0.13818949153337717,"159":-0.1383962423486666,"160":-0.12391237327396605,"161":-0.0010263961110649064,"162":-0.05040899954396733,"163":-0.09099774096907595,"164":0.017225421439092135,"165":0.1070743814490684,"166":-0.10278659334152926,"167":0.0283445024764301,"168":-0.1257288715801986,"169":0.018531596325665634,"170":-0.04174848564700636,"171":0.03288277077079927,"172":-0.10961460546676705,"173":0.1484254837406369,"174":-0.12051020449854821,"175":-0.06742624355864936,"176":0.04790241911270913,"177":0.08167356989146798,"178":0.05957684834209058,"179":-0.13671794808419832,"180":-0.12835596109365405,"181":-0.03081360505753059,"182":-0.06914734985034292,"183":-0.0543260550480252,"184":0.07244575864424717,"185":-0.03825877731339809,"186":0.014494057454779526,"187":0.022694555774887465,"188":-0.047041812614326876,"189":-0.044142520293950126,"190":0.042535191504853256,"191":-0.046759856558429576,"192":0.029691865991628937,"193":-0.092195238598384,"194":-0.08708946628146949,"195":-0.08367150349079167,"196":0.0635328003729725,"197":-0.02594626120845509,"198":0.00611897768100643,"199":-0.09353239942075402}},{"sx":5,"sy":5,"depth":8,"w":{"0":-0.030997169991425697,"1":0.10590714827756056,"2":0.11727993288621762,"3":-0.07726722950866968,"4":0.0714570299844176,"5":0.11060005477177162,"6":-0.017159767468092307,"7":-0.04329293870385854,"8":-0.09083505146758242,"9":0.019251781832781627,"10":0.17840825637725669,"11":-0.20133194303806246,"12":0.08043957242980779,"13":0.20845879475397278,"14":0.0010803010121235457,"15":-0.04321118716298486,"16":-0.039666037234073664,"17":-0.13095014791656276,"18":-0.00852981492112167,"19":-0.09724984508120998,"20":-0.14763781733214293,"21":-0.10810647784162458,"22":-0.049612802012784,"23":-0.06347204857079163,"24":-0.1485198295917746,"25":-0.0889522788091526,"26":0.011835586527383143,"27":-0.02671662277651659,"28":-0.12987950550385785,"29":-0.20682998536942684,"30":-0.17547652750814077,"31":-0.0405158139899477,"32":-0.02508411055741498,"33":0.060998638334886106,"34":-0.11909039478702078,"35":-0.016575892863196138,"36":0.02909547627458685,"37":-0.14971510148960554,"38":-0.1059821856341667,"39":0.006526086166053357,"40":-0.2633514910691758,"41":-0.04503268051229328,"42":0.15134163763031636,"43":-0.12725150455168585,"44":0.21537211346030005,"45":0.22450169741523354,"46":0.05682797020854886,"47":0.0524649266050788,"48":-0.15692991852462454,"49":0.09271954830670792,"50":0.13199730921249658,"51":-0.18515642929568654,"52":0.1811895854383834,"53":0.24337775422896873,"54":0.10896812328808927,"55":-0.12828265357835011,"56":-0.22352631599169837,"57":-0.027806664543885366,"58":0.09430736925053107,"59":-0.1378294528886056,"60":0.11184003496414685,"61":0.045679204904167714,"62":0.04214888204859494,"63":-0.29380617362103917,"64":-0.1503867465715667,"65":0.004217753559338523,"66":-0.14032368478165122,"67":-0.1404174512198824,"68":0.08694914692987668,"69":-0.055424096009074234,"70":-0.16879062711787068,"71":-0.21770591641003342,"72":-0.011163352122410488,"73":-0.12651575233237633,"74":-0.027243793045620288,"75":-0.06555660194878284,"76":-0.01499355802638135,"77":0.13921357608281926,"78":-0.06839963879653091,"79":-0.0873244705310807,"80":-0.5303974978536828,"81":-0.19434640745762355,"82":0.19564096925008054,"83":-0.1775133613233198,"84":0.07879224601956447,"85":0.166259885010812,"86":0.09836559731243051,"87":0.2797416398659676,"88":-0.18831471960261148,"89":-0.1287124538259727,"90":0.18212818217206478,"91":-0.10203117910168867,"92":0.12381324387751409,"93":0.14070727621794205,"94":0.06449619277001334,"95":0.1472018712923086,"96":-0.2445288315290085,"97":0.1957130632691574,"98":0.10878852558484602,"99":-0.11973220607664145,"100":-0.018234517144982955,"101":-0.07361369156850975,"102":0.2433634133182727,"103":-0.13495626219103904,"104":-0.3924105458381763,"105":0.17530500326202617,"106":-0.05415406322173049,"107":-0.14608439796727937,"108":-0.10953922470534458,"109":0.12250922268439611,"110":0.009387121372916035,"111":-0.08461961964128539,"112":-0.07795323133579105,"113":0.03331601597728279,"114":0.1318898870261641,"115":-0.14823795117553087,"116":0.012832961372839713,"117":0.09725819741594316,"118":-0.007966753870868537,"119":-0.14304331461376063,"120":-0.5285756950042063,"121":0.07169747817928498,"122":0.29866325404291366,"123":-0.363190293475033,"124":0.20447055317108453,"125":0.21442961388565646,"126":0.25332302237325643,"127":-0.21820113719955678,"128":-0.3267731062318183,"129":0.10945334313581567,"130":0.036094568311855785,"131":-0.05811943055899511,"132":-0.07800163283334982,"133":-0.02810182818334779,"134":-0.09784703157903946,"135":-0.05400721399974999,"136":-0.18678078964021472,"137":0.25913329275807506,"138":0.010993581208117702,"139":0.0694212867835054,"140":0.0593136765236826,"141":-0.12178586772858656,"142":0.1942597616762801,"143":-0.09305704593910673,"144":-0.2795126837012133,"145":0.2681338365661998,"146":0.04562170915695582,"147":-0.18700032007240472,"148":0.14880734911572033,"149":0.09657753252585925,"150":0.08975789688729852,"151":0.13770796904655194,"152":-0.09246161647360332,"153":0.14351438498248367,"154":0.024573536827186042,"155":-0.1562509233321546,"156":0.17505973596406899,"157":0.11251758871035265,"158":-0.09898185920436793,"159":-0.012859059596941823,"160":-0.08367959770863605,"161":0.165004031132807,"162":0.10431761163124355,"163":0.009571828057148696,"164":0.30625523429664553,"165":0.15191859156959467,"166":0.12290871775286435,"167":0.10194001528583836,"168":-0.38295498728617594,"169":0.2663654531710883,"170":0.23142197607801346,"171":-0.08915633685907662,"172":0.01162928273724366,"173":0.26771938428667086,"174":0.31536219616288536,"175":-0.122200546043891,"176":-0.19722525704669588,"177":0.17955546728521282,"178":0.13342467074230252,"179":0.0009285136386543292,"180":0.0014155915081548104,"181":0.17214692232702933,"182":-0.017498598714166137,"183":-0.08480802224100384,"184":-0.18852942356579486,"185":0.1117317651042733,"186":-0.0653238946088513,"187":-0.1410760255030249,"188":0.005488841153886786,"189":0.1159748725673394,"190":0.01803705346123925,"191":0.07069658625694779,"192":-0.06927037875996601,"193":-0.17463432486365896,"194":0.10253711962906317,"195":-0.051866640176528804,"196":0.06172516599973925,"197":0.08858456623730783,"198":-0.04660108039945918,"199":0.20053429139855505}},{"sx":5,"sy":5,"depth":8,"w":{"0":-0.0736190999382272,"1":0.06506031145620794,"2":0.00020784347156748616,"3":-0.006500173656653913,"4":0.1898517473668713,"5":0.07281634729177325,"6":0.14829524801384697,"7":0.07816484062388933,"8":-0.048933440848575385,"9":-0.1982859765549986,"10":0.029790873093529308,"11":-0.17123430504140777,"12":0.07907397528157528,"13":-0.05689169625315878,"14":0.06744825284444994,"15":0.29016148311275075,"16":-0.09247018857141578,"17":-0.049436678096762894,"18":0.11619115314088242,"19":-0.010777081619549739,"20":0.09082785621449478,"21":0.03925231269065474,"22":0.06541382230233157,"23":0.27589690484978174,"24":-0.04656868986730597,"25":-0.08000115378562768,"26":0.11314675158786851,"27":-0.08553700350239553,"28":0.052602380855363645,"29":0.06044939735447077,"30":-0.07486552885679046,"31":0.3519069761330929,"32":-0.00769237995271705,"33":-0.04192166777547425,"34":-0.1253939536664563,"35":0.024156709420620568,"36":-0.16644349591262614,"37":-0.1662424742309142,"38":-0.06082121035281829,"39":0.1591199787054302,"40":-0.14185622462543518,"41":-0.10346633201440991,"42":0.0339225648701661,"43":-0.12934772232537442,"44":0.03330593803352544,"45":-0.14067945099833218,"46":0.044002831219757566,"47":0.3122686883802548,"48":0.03690177093026381,"49":-0.13185793770520088,"50":-0.0590329645091023,"51":0.015384736314130572,"52":-0.06260698114738117,"53":-0.36054093177046737,"54":-0.2803242996740694,"55":0.22725060979817058,"56":-0.11894467604119502,"57":-0.055187312615975016,"58":-0.1552600661435947,"59":-0.13370050513256462,"60":-0.15587394771138044,"61":-0.16615284075613412,"62":-0.29431128515895427,"63":-0.04383292558195692,"64":-0.08724216615472485,"65":-0.025505103061837127,"66":-0.022466114511500986,"67":-0.06051581318984603,"68":-0.08306292030678743,"69":-0.09713788994422612,"70":-0.1743376553089631,"71":-0.2572233240123628,"72":0.05571365857690366,"73":0.08283273350984602,"74":-0.09451220057033861,"75":0.10586437041381794,"76":-0.04444601992746975,"77":-0.08632322624401916,"78":-0.1677936190071472,"79":-0.06592347545540313,"80":-0.14332018058484822,"81":0.0064396382669722925,"82":-0.09290864792047253,"83":-0.044109413370278974,"84":-0.1135501027358092,"85":-0.25227236550420146,"86":-0.1944907807517372,"87":-0.1846912897370249,"88":0.01868579457988029,"89":-0.02240841990976717,"90":-0.2343271548444479,"91":0.03753367529440889,"92":-0.3264295136177149,"93":-0.22366253998950633,"94":-0.3231353795490302,"95":-0.36449741363388455,"96":-0.028635202721748004,"97":-0.11310003965550869,"98":-0.06209202018836721,"99":-0.05626664690558977,"100":-0.28548670346478944,"101":-0.2858193118606621,"102":-0.2929972631981287,"103":-0.14248633941040437,"104":-0.09701703330850653,"105":-0.11609458345611005,"106":-0.10626149338034103,"107":-0.05218871151539327,"108":-0.22826118369812745,"109":-0.2218855458899983,"110":-0.07979107089892437,"111":-0.3278652283831238,"112":-0.14566083129711258,"113":-0.0024488786267546714,"114":-0.10732636124280356,"115":-0.006283021349188258,"116":-0.14513965968871614,"117":0.005086108494875936,"118":0.16178733880602034,"119":-0.0398061887470046,"120":0.008357880887793337,"121":-0.1766147477148784,"122":-0.110446181667839,"123":0.011834705647822834,"124":-0.33569285054521164,"125":-0.33902416649436,"126":-0.15391299379552542,"127":-0.3257127416849086,"128":0.006025199893723682,"129":-0.08098123777668846,"130":-0.18656740478418327,"131":0.0010337971196527171,"132":-0.15554617388557263,"133":-0.1948579785169902,"134":-0.2745900051506918,"135":-0.3870112080577337,"136":0.034931991690620647,"137":-0.09136797893079103,"138":-0.11018042391768731,"139":0.009788188922816339,"140":-0.1801260321699037,"141":-0.17628130697143005,"142":-0.15830332271462386,"143":-0.11595947685584156,"144":-0.08936787408653037,"145":-0.016857343980254076,"146":-0.17264865207994845,"147":-0.041763359802374736,"148":-0.1039240784549843,"149":0.013032402236271272,"150":-0.05221373710966431,"151":-0.014620892707582647,"152":0.004355373171300864,"153":0.25065894031274866,"154":-0.004346851281771473,"155":0.017771240314531447,"156":0.12947367957779748,"157":0.1527601296713398,"158":0.21504531357754678,"159":0.20873811911053153,"160":-0.05491357101567457,"161":-0.03884498346499237,"162":-0.005555140349986835,"163":0.013981682970277444,"164":-0.2489691639550283,"165":-0.12292366468003843,"166":-0.17275885454240553,"167":-0.21985275556038764,"168":0.04171769333063871,"169":0.022684277160874743,"170":0.07240837592874648,"171":-0.02193156623193572,"172":-0.1364851838516145,"173":-0.09542322095388145,"174":-0.2816749449287056,"175":-0.29756824474948446,"176":0.0012362486923053004,"177":0.007526491513914675,"178":0.060104428672431036,"179":0.08866587664607199,"180":-0.049417953283971534,"181":0.035860967192690905,"182":-0.07544303242821095,"183":-0.20527775236297155,"184":0.1437871128039275,"185":0.08553395196272325,"186":-0.005761405181257656,"187":-0.018644815926410457,"188":0.05604731801224721,"189":0.07012365351520185,"190":0.13527518093860533,"191":0.0576054271787739,"192":-0.016829270661123427,"193":0.10659665635556585,"194":-0.04263635348370058,"195":-0.0426916135624306,"196":0.031553469799156034,"197":-0.0011222056396440556,"198":0.3657236568317109,"199":0.2033468270094896}},{"sx":5,"sy":5,"depth":8,"w":{"0":-0.139788556796901,"1":0.02229946701250618,"2":-0.00791508169550096,"3":-0.21107425751003758,"4":-0.13600578663746102,"5":-0.05895424210353884,"6":-0.2970374919900655,"7":-0.1577597462893675,"8":0.07496288827052944,"9":-0.12053599104139873,"10":-0.002866443562300063,"11":-0.024763866100323394,"12":-0.11248686713356558,"13":-0.04736363043836893,"14":-0.12071372294008048,"15":-0.1632569779857905,"16":0.09432652974369228,"17":-0.04349719537039949,"18":-0.002713862045105865,"19":0.13679480325196514,"20":-0.07208025599101701,"21":0.09666161151122246,"22":0.022734138704008238,"23":-0.08702117478824656,"24":-0.020768240672705655,"25":-0.1192198252641121,"26":0.034542865975010495,"27":0.025797033085096597,"28":0.015134605321805545,"29":0.15047618255368125,"30":-0.142125087107819,"31":-0.1249430453491529,"32":0.19992953630074795,"33":-0.08935955467788342,"34":0.031675616461242416,"35":0.06749080326430648,"36":-0.10091207464681924,"37":0.11566320736139067,"38":-0.14997806591511031,"39":-0.19845070477434656,"40":0.016806739904331233,"41":-0.08128422623466368,"42":-0.2034586691726033,"43":-0.03327367925697584,"44":-0.06192972729988588,"45":0.07312110242208307,"46":-0.10472521186900671,"47":-0.07676274836138616,"48":-0.07315787540104848,"49":0.06241345439656071,"50":-0.04022218536619026,"51":0.11985048460663922,"52":-0.10903295928986532,"53":-0.15383456538305404,"54":0.10902508544934242,"55":-0.11162727898320456,"56":0.014330941154681478,"57":-0.0378955754624712,"58":-0.032338115782544134,"59":0.06877601736134373,"60":0.11961000259895717,"61":0.005574577273650928,"62":0.043048956449486434,"63":0.10247683693294757,"64":0.018948945830138987,"65":-0.057926746551149016,"66":0.057006121806319345,"67":-0.043763819666344364,"68":-0.0323837763546422,"69":-0.08064248387548321,"70":-0.15512055793878776,"71":0.01684408125975832,"72":0.010833245146006084,"73":-0.1356395697663315,"74":-0.09588774947442096,"75":0.05909286860589933,"76":-0.1664972823238686,"77":-0.04897085622057523,"78":-0.19307471366285298,"79":-0.08786546605139581,"80":0.20401739979348746,"81":0.1723563091022388,"82":-0.02584023777233384,"83":0.09324811239407545,"84":-0.1793428197910897,"85":0.04908342230393384,"86":-0.05395969345722647,"87":0.1694301337690711,"88":-0.12159787436749052,"89":0.12899864267916797,"90":-0.1809307374513555,"91":0.014731881412442568,"92":0.16882877698061405,"93":0.21239587804824087,"94":0.14381469968802324,"95":0.36982301466903644,"96":-0.06946225496123004,"97":0.01660426575288812,"98":-0.025672835134553047,"99":0.1089940573221449,"100":0.32434562737429506,"101":-0.015022428759928893,"102":0.12844005150520313,"103":0.3014825499754424,"104":0.05843539651381186,"105":-0.14637346919330727,"106":-0.15017605088826194,"107":0.045730792798548546,"108":-0.21528339091771223,"109":-0.22730599956052652,"110":-0.21741160388913391,"111":0.14845666922942138,"112":0.0037652355316844326,"113":-0.07875953346709234,"114":-0.41992587059848563,"115":0.020392511335120104,"116":-0.004593608393241752,"117":-0.3635236589741667,"118":-0.5079428160634515,"119":-0.16477810378762922,"120":0.1269626983260193,"121":0.21068002048377307,"122":-0.0775876639074487,"123":0.08024840544096652,"124":-0.05158427030285899,"125":-0.010782101717813035,"126":-0.05071584670688198,"127":0.12780805109548699,"128":-0.03754192039088286,"129":0.05077874221648421,"130":0.17191611931685702,"131":-0.04050395704813169,"132":0.13090463039564484,"133":0.21704099982155445,"134":0.31807513176560887,"135":0.3217066357372145,"136":0.02072741030157285,"137":-0.08685133619643476,"138":0.11658070783669582,"139":0.0680770067790422,"140":-0.14191499381035344,"141":-0.229014134423732,"142":0.02527693606326339,"143":-0.050922399257020315,"144":0.021730438858830695,"145":0.02375424583101712,"146":-0.1775419240294402,"147":-0.12634401978503088,"148":-0.2650146063476549,"149":-0.349584868979577,"150":-0.49209359628897875,"151":-0.5551666409609867,"152":0.11976329426490068,"153":-0.005087215265414628,"154":-0.1180053345526288,"155":0.11081003463594936,"156":-0.30853586944445804,"157":-0.25065631889584533,"158":-0.5875569355954893,"159":-0.2228801242432407,"160":-0.22786228848774595,"161":0.006220865399828202,"162":0.05036502452452335,"163":-0.21985978574142842,"164":-0.09269908035921953,"165":0.08203710169628663,"166":0.18312584257083434,"167":0.1535010623240668,"168":-0.2721993259402488,"169":-0.17106785796974627,"170":0.1338373755913995,"171":-0.07854890517414705,"172":0.029905734749318083,"173":-0.050280182001130935,"174":-0.02972898318315485,"175":0.03799310053193157,"176":-0.22967889890668206,"177":-0.07165212954984022,"178":-0.003996253405926856,"179":0.04129339624666087,"180":-0.22375502394345598,"181":-0.16665270186608278,"182":-0.5450895933326897,"183":-0.47898373206332473,"184":-0.3320317548562229,"185":0.14781320122578648,"186":0.005960356656202589,"187":-0.03557838356035401,"188":-0.07323806514710593,"189":-0.05443365185338662,"190":-0.3400974320683562,"191":-0.43554180258780917,"192":-0.27462025191525674,"193":0.03643744804126182,"194":0.01947574191301479,"195":-0.1996828511281152,"196":-0.013908957187300201,"197":-0.07977313562798925,"198":-0.026715671020925476,"199":-0.3588943176807283}},{"sx":5,"sy":5,"depth":8,"w":{"0":0.028001962423205646,"1":0.01264733205974422,"2":0.18199376998144245,"3":-0.03346919125019851,"4":0.004323157720294973,"5":0.08689191150596474,"6":0.1029180053598014,"7":-0.10508016392768818,"8":0.1752115289035266,"9":0.047254822945595264,"10":0.13254307721550498,"11":0.042082299865838446,"12":-0.1445026283038034,"13":0.02381204868993511,"14":0.04697832908570784,"15":-0.14963073011651845,"16":0.23090803685503655,"17":-0.1507358769563101,"18":0.08115252414453154,"19":0.059257837122337745,"20":-0.11332115183758751,"21":0.05598701351904483,"22":-0.19048142524656594,"23":-0.313139487657015,"24":-0.0017894571957472495,"25":-0.18517244538719208,"26":-0.05937235405539558,"27":-0.024538063699779285,"28":-0.18163780305688534,"29":0.04012075921158528,"30":-0.18820087718148465,"31":-0.25167405362197437,"32":-0.15426979988542688,"33":-0.09862360062980612,"34":-0.4115930105702364,"35":-0.22574838295066707,"36":-0.29958885751097836,"37":-0.45625053948188304,"38":-0.28126659439128243,"39":-0.5006716565957219,"40":-0.08194845124027555,"41":0.01846438143407369,"42":-0.07283708383274397,"43":0.027346404268430432,"44":0.10723425353633999,"45":-0.06629136382945992,"46":-0.17670504589241554,"47":0.17598462584216315,"48":-0.11016656641094782,"49":-0.10038362656733722,"50":-0.02526543542339227,"51":0.04844449916052154,"52":-0.024399040282059904,"53":0.1837226170278512,"54":-0.09876428222431341,"55":-0.10411327838196244,"56":-0.07847548711479435,"57":0.03518685841306633,"58":0.09898830080533397,"59":0.03186368443453854,"60":0.07216829591256084,"61":0.1143548510084073,"62":-0.025976055583428276,"63":-0.1499841573503956,"64":-0.09782634740447575,"65":-0.07758482554401713,"66":0.17078559941079083,"67":0.054946320392721265,"68":0.07291385594590563,"69":0.21775768594752867,"70":0.11098911350482192,"71":-0.24600324361190398,"72":0.0209295786999421,"73":-0.24910622424968648,"74":-0.14581298505603904,"75":-0.06750969703996053,"76":-0.10252537888980442,"77":-0.008403724689675254,"78":0.14591452830980273,"79":-0.7123707284182987,"80":-0.007071413008383461,"81":-0.14305511283299605,"82":-0.2594159533565115,"83":-0.08629570368986533,"84":-0.15103819778890087,"85":-0.15615476303570489,"86":-0.20063590025216568,"87":-0.005824525045350992,"88":0.015605482584029303,"89":0.030816654305216993,"90":-0.11897206689284186,"91":-0.002147827531244763,"92":-0.04185217750863518,"93":-0.1765232464034987,"94":-0.16860283919042163,"95":0.008855797303181099,"96":-0.10931665817764792,"97":-0.05379604232520576,"98":-0.09536546710700156,"99":0.045013043027263985,"100":-0.0006529141032036391,"101":0.04777177929773282,"102":0.1285578723776937,"103":-0.10660770576315115,"104":-0.15672827474476866,"105":0.18798746063691804,"106":0.05238499251031182,"107":-0.0932729704851117,"108":0.15615201686797298,"109":0.11959169304030305,"110":0.12564028811601646,"111":0.11077321826390003,"112":-0.09474954431864133,"113":-0.08683335529352407,"114":0.22497306175229706,"115":-0.14913446564348906,"116":0.0923875617502889,"117":0.33385107848380174,"118":-0.009489022921082585,"119":-0.5081524041323691,"120":-0.06443936302336646,"121":-0.07012090092909992,"122":-0.23005793699380278,"123":-0.1542647542568042,"124":-0.3803967690712389,"125":-0.35429280275289554,"126":-0.19296281811389765,"127":-0.28038448163317653,"128":0.08764550344046963,"129":-0.047565636590888125,"130":-0.2823139006247061,"131":-0.2306214483392488,"132":-0.24059332993030308,"133":-0.20608644206415044,"134":-0.27065663400722034,"135":-0.08137939345797415,"136":0.0683177423409842,"137":0.06589354624142613,"138":-0.2254203111152886,"139":0.09667349113464449,"140":-0.2214810714984317,"141":-0.18482274664546666,"142":-0.2718855268523663,"143":0.04756816092992978,"144":0.17566850550301777,"145":0.024316636979857257,"146":-0.03846222041496008,"147":-0.09259360588618226,"148":-0.015232314905782696,"149":0.010487363860096537,"150":0.1255551655386657,"151":0.1895646255183478,"152":-0.08947615834936877,"153":-0.20507049877876435,"154":0.054062338757859374,"155":-0.09823423721087621,"156":0.039936282064840865,"157":-0.00038253076122076975,"158":0.08724999597803451,"159":-0.10714769001984066,"160":0.06845506554306299,"161":-0.14140203209210417,"162":0.18903900588399888,"163":0.03558639174422962,"164":-0.08287595832293491,"165":-0.14234551236314527,"166":0.04650753695373009,"167":-0.26227861593107205,"168":0.08135483105630795,"169":-0.14772070341613466,"170":-0.011528188627337056,"171":-0.038679846362180116,"172":-0.14462951935575766,"173":-0.15670770938046244,"174":-0.22815425937821243,"175":-0.5372914938368557,"176":0.15688918783138092,"177":-0.14251592877563007,"178":-0.13135401597609647,"179":0.07704285590799484,"180":-0.3569795969849313,"181":-0.2296161370185072,"182":-0.26707988889362866,"183":-0.3323914405719866,"184":0.1491361306976017,"185":-0.10361868117169817,"186":-0.12331949656059653,"187":0.12318741180773375,"188":-0.18895799688727172,"189":-0.11580922096592632,"190":-0.24162082992950668,"191":0.009218522320531861,"192":0.2818098833733487,"193":-0.1375607727682499,"194":0.04856798212185024,"195":-0.10694633469293652,"196":-0.05325154601793701,"197":-0.09014818948579506,"198":0.07619103589040035,"199":0.1334432690115148}},{"sx":5,"sy":5,"depth":8,"w":{"0":0.014123543882057268,"1":-0.015484564662243475,"2":-0.17017493869223188,"3":-0.09907276332615016,"4":-0.18425153452415174,"5":-0.17935489576257513,"6":-0.06161107286999829,"7":-0.20897258050070164,"8":0.04602579904006277,"9":-0.05654412385314665,"10":-0.11969401089243177,"11":0.0713013739401533,"12":0.02861563466527664,"13":0.0340272507609785,"14":0.028430819870022668,"15":0.20448733840516187,"16":0.015181976911051573,"17":-0.04931524181837876,"18":-0.028438436969865043,"19":-0.03213764049133534,"20":-0.06837289121971771,"21":-0.05294804206972189,"22":-0.031851065915967695,"23":0.22264784834131357,"24":-0.05369186985112994,"25":0.11804136571101896,"26":-0.12598815690500131,"27":0.09227330233923792,"28":0.0782353142818149,"29":-0.055388923717233196,"30":-0.1626742000538119,"31":0.31733954428257144,"32":-0.15451381917393672,"33":-0.01579679179265841,"34":0.0961913391009019,"35":-0.004761749566409325,"36":0.11457636135844053,"37":-0.05681426867328894,"38":0.11418274085871873,"39":-0.10523666303213103,"40":-0.02628383823033922,"41":-0.017029197902110747,"42":-0.091689797242254,"43":0.06887376380132412,"44":-0.13578826112729783,"45":-0.2692441859965034,"46":-0.09568857285433112,"47":-0.10881903051424838,"48":-0.038092430726764326,"49":-0.09753212407969726,"50":-0.14186107242909007,"51":-0.12409290823717448,"52":-0.062202091922674015,"53":-0.21464166294432618,"54":-0.10898209334472021,"55":-0.20778383502223452,"56":-0.029238865138564586,"57":-0.09552945058472521,"58":-0.19349550064413434,"59":0.08784893196174345,"60":-0.17812117912804326,"61":-0.17050364836674378,"62":-0.10892085549341138,"63":-0.1489703843442219,"64":0.09289493113261874,"65":-0.17072849786365088,"66":-0.27002485451575853,"67":0.013926866112226884,"68":-0.07755292973288384,"69":-0.108899459226311,"70":-0.10521854578846512,"71":0.08601521332429618,"72":0.02547767478436426,"73":-0.021602200837930408,"74":0.06794407504851521,"75":0.07139480980651342,"76":0.1959205773011283,"77":-0.06511185260953109,"78":0.06336696334331163,"79":0.26856662306787576,"80":-0.09708580431672895,"81":-0.10882396075860692,"82":0.15970563948969943,"83":0.019112772305387746,"84":-0.11416022517181526,"85":0.07285720922276234,"86":-0.060654159962523616,"87":-0.16580547808628068,"88":-0.09010676144444407,"89":-0.0604181992051579,"90":0.07985931360942909,"91":0.07057949154311752,"92":-0.17453073842922315,"93":-0.11032501256636996,"94":-0.17152482394817187,"95":-0.16775752551794157,"96":0.003327236910820207,"97":-0.06369530976775467,"98":-0.17404476916928982,"99":-0.008193054539945394,"100":-0.07064135008776688,"101":-0.14400437467085064,"102":-0.10084956855593934,"103":-0.3150345416001709,"104":0.09241033909326259,"105":0.0760783612843383,"106":-0.14248722159492502,"107":0.10374856390686268,"108":-0.017160051846534966,"109":-0.18680247681677392,"110":-0.12527143251981454,"111":-0.09072554376325793,"112":0.15757724127172232,"113":-0.012132356395942694,"114":0.07920613632405746,"115":0.0278908014328287,"116":-0.1312134363374782,"117":-0.1466545712374218,"118":-0.18639378409885926,"119":0.046042995767239164,"120":-0.2627340130997191,"121":-0.04203105841218596,"122":0.10839476715278717,"123":-0.250122705648377,"124":0.0747849304612149,"125":0.26658294167646196,"126":0.09944893942563694,"127":-0.20751346701654244,"128":0.0018149304959446328,"129":-0.12430961784544316,"130":0.27005107458991134,"131":-0.04925070972622622,"132":0.015569540459131446,"133":0.24694778826042613,"134":0.00211038422361127,"135":-0.09811576644068995,"136":0.003356592892916705,"137":-0.16891269222720418,"138":0.14656354753316037,"139":0.06270691799224302,"140":-0.13744160214639925,"141":0.10243272829492747,"142":-0.0984099636526355,"143":-0.17185114525080408,"144":0.07068196610865089,"145":0.06361932319229675,"146":-0.05417426622135077,"147":0.012082386049684948,"148":-0.20094005111333818,"149":-0.025519300723310028,"150":-0.12078215142592791,"151":-0.10764793738154979,"152":-0.020635831987413884,"153":0.033291306575579535,"154":0.013943521198773965,"155":-0.1739877440421983,"156":-0.14291713114030424,"157":0.056536141797838585,"158":0.15933899140367838,"159":-0.20945125752081384,"160":0.039772186352868444,"161":-0.047479707525301174,"162":-0.12457121294293945,"163":-0.0630396457239824,"164":-0.10206913771391242,"165":-0.2328143755712752,"166":-0.26018328206745084,"167":0.1172127924805061,"168":0.029050484857470117,"169":-0.053827846419995745,"170":-0.141069466465413,"171":-0.049131400434108345,"172":-0.06775709923029445,"173":-0.06742711781871355,"174":-0.006427382171999453,"175":0.043528250997177914,"176":-0.15294392321004835,"177":-0.056176553017147086,"178":-0.03447414276164361,"179":-0.1897472756866377,"180":0.16577821986468275,"181":0.016814019305626194,"182":-0.1959470622914179,"183":-0.17184384136079991,"184":-0.12023930459493057,"185":0.06025794248107675,"186":0.004021540358829232,"187":-0.12527414020013744,"188":-0.09609145085099191,"189":0.21205102827896158,"190":-0.1277354901930927,"191":-0.1220011068950834,"192":0.03319746489573426,"193":-0.17369323233619632,"194":0.09434819055963145,"195":-0.0865212334988068,"196":-0.07118014951101077,"197":0.07608576054465199,"198":-0.0754842670171599,"199":-0.007431358048205923}},{"sx":5,"sy":5,"depth":8,"w":{"0":0.05725223367363143,"1":0.0602447244196732,"2":-0.028216229174409708,"3":-0.11011614519505708,"4":0.014837421588059134,"5":-0.11734082644561666,"6":0.1991330906536479,"7":0.17051346569610745,"8":-0.009579660186539735,"9":0.12720803031637729,"10":0.06528547782907669,"11":0.04115153370158635,"12":0.036439576147922606,"13":-0.2193306511415913,"14":0.05500596492537909,"15":-0.13415142826682705,"16":-0.06471641535363652,"17":-0.05736189492563607,"18":-0.009853449785138323,"19":0.06814943324878021,"20":0.04281610899273483,"21":-0.14112758283542576,"22":-0.05949742465041118,"23":-0.2317880334404088,"24":-0.05559168649780519,"25":-0.07351709604249508,"26":0.018919068192602452,"27":-0.07723161128357317,"28":-0.18356435375512672,"29":-0.09322293140711908,"30":-0.10955460242774649,"31":-0.19713500619479235,"32":0.050786286978247185,"33":-0.13821605321807306,"34":0.07024816234205807,"35":-0.05991308611971001,"36":0.00738002600636371,"37":0.13374320356788436,"38":-0.07907003362067277,"39":0.017758966253804638,"40":0.10082766961320694,"41":0.0249209941452351,"42":0.15159487216217835,"43":0.14109532295472219,"44":-0.037115642541339956,"45":-0.07320902903551889,"46":0.10791485649932143,"47":-0.1321621873563782,"48":0.10362987101974715,"49":0.10735927645282264,"50":-0.06601041268143694,"51":0.2125674306013685,"52":0.12656715971542484,"53":-0.1757965605523549,"54":-0.20329029944414728,"55":-0.14850095910877548,"56":-0.2694201237232143,"57":0.17549479142104288,"58":0.1433246136707646,"59":0.04611284151798591,"60":0.23176715608261167,"61":0.1630343479974451,"62":-0.20498203693916067,"63":-0.024687844330286646,"64":-0.2420411491523085,"65":0.11435874583335978,"66":0.15911620871323603,"67":-0.36662625916701824,"68":0.11813147988202546,"69":0.34048310288812866,"70":-0.07832885841551408,"71":-0.2683846008294422,"72":-0.248518128704926,"73":-0.05519031044131379,"74":0.019739759443580304,"75":-0.1446801059196775,"76":0.1490248311824583,"77":0.07890090293448264,"78":-0.13293772822440195,"79":-0.278176522407516,"80":-0.10523548781676527,"81":0.047464849470441606,"82":0.09501973922276309,"83":0.01666400977699205,"84":-0.15600204957872105,"85":-0.010321781205172353,"86":0.08566734283077528,"87":-0.3206263779467771,"88":-0.03743845431868392,"89":0.09501999750118957,"90":-0.25428944776046974,"91":0.1132688686405876,"92":-0.04056463879479582,"93":-0.10162785473050288,"94":-0.22946069643212896,"95":-0.12252473142418854,"96":-0.32842636433921557,"97":0.28103411417116064,"98":0.10535549818115199,"99":-0.037611406018964406,"100":0.10146733773980156,"101":-0.0063494517154825325,"102":-0.07641941660412509,"103":0.14552760789843835,"104":-0.37274022071867485,"105":-0.18176933450908667,"106":0.10000291844086709,"107":-0.36715817628978165,"108":0.22846793158312284,"109":0.0017316070328948603,"110":-0.048278659515676406,"111":0.12654685538401245,"112":-0.16385605653323482,"113":-0.21907587622602193,"114":-0.007774970369871126,"115":-0.12616293963741707,"116":0.005190180517861221,"117":0.1035614977944961,"118":-0.010161358140636359,"119":-0.18816018158952372,"120":-0.23831991042605957,"121":-0.07483345065676797,"122":0.19438738022104754,"123":-0.06156796967439602,"124":-0.12145402890083347,"125":-0.15773562433874383,"126":0.41142398299613026,"127":-0.1289680793447892,"128":-0.09826410921215976,"129":0.1737275888931431,"130":-0.16701495538452504,"131":0.14896142433439563,"132":0.07948207859261634,"133":-0.06567452050050086,"134":-0.24573928409989335,"135":-0.10741087933211557,"136":-0.16190698016231742,"137":-0.14764825122652495,"138":0.18321173682111544,"139":-0.410408111864551,"140":0.19381747183829426,"141":-0.10500705140062624,"142":0.023845924082197534,"143":0.10880391413605428,"144":-0.3147613101610933,"145":0.005959995425373282,"146":0.3204065152790878,"147":-0.38577388414938746,"148":0.25370460942115625,"149":0.277197868262269,"150":-0.1920960420099548,"151":-0.18047312166612248,"152":-0.17794768434302943,"153":0.16879314831992628,"154":0.3072590417953083,"155":-0.12090290279277113,"156":0.16474681166062527,"157":0.4717788713937484,"158":0.2547038119418764,"159":-0.06705722865509649,"160":-0.34937296577724275,"161":-0.06903780131241459,"162":0.040462229112334464,"163":-0.1854032784535957,"164":-0.1404941972684881,"165":-0.11393178996230503,"166":0.3236795696966047,"167":-0.21274698549051238,"168":-0.2847484845363343,"169":-0.09415688206069013,"170":0.38989907616536607,"171":-0.17271569952064,"172":-0.2631186718297603,"173":0.21423414955418363,"174":0.031052823094059576,"175":0.0144957167184199,"176":-0.1644307266855331,"177":0.02547703717097773,"178":0.16952279481167454,"179":-0.2722573450574168,"180":-0.0756231384960537,"181":0.034940528016954665,"182":-0.23455723765576078,"183":0.07662069114847869,"184":-0.10069265551711724,"185":0.17002429485058404,"186":0.23209754720035236,"187":-0.05554681340546213,"188":-0.00324912195832333,"189":0.0826878724130754,"190":-0.23608814945535025,"191":0.18011403712128476,"192":-0.07374269936117452,"193":0.07621195970289939,"194":0.42473149448879405,"195":0.11210438299212347,"196":0.33805063561115856,"197":0.1767252699482308,"198":0.3452193233114393,"199":0.16779806136482647}},{"sx":5,"sy":5,"depth":8,"w":{"0":0.0002737850131101332,"1":-0.038043866796765566,"2":-0.271029455598784,"3":-0.13319371923388618,"4":-0.21365500223942138,"5":-0.24092869851660267,"6":-0.42186718432871667,"7":-0.17931697224590973,"8":-0.030768900639345755,"9":-0.19841742188995024,"10":-0.052763586300513615,"11":-0.16483618301816003,"12":-0.1178177302331416,"13":-0.15281925993637335,"14":-0.17552158056819953,"15":-0.09005721689854983,"16":0.053126949730357025,"17":-0.20862684505003465,"18":-0.06586502700066703,"19":-0.11625744146819061,"20":-0.1803250736230706,"21":-0.406317039748784,"22":-0.3204474189018644,"23":-0.2866237351839208,"24":0.007057510139475856,"25":-0.22423877991584282,"26":-0.2156062711931919,"27":-0.03330774851628249,"28":-0.08199555040739902,"29":-0.15008456249762572,"30":-0.3156537603530183,"31":-0.15074515524330287,"32":0.08155125217876594,"33":0.04314670967492441,"34":-0.04528295949554807,"35":-0.11605183865549865,"36":0.019675145139477386,"37":-0.18775424648350553,"38":-0.13732869750158264,"39":-0.1372055476519178,"40":0.0427988904172222,"41":0.1666632224883851,"42":-0.024380264833003287,"43":0.1662668786367737,"44":-0.10966667999256403,"45":-0.055401018545855295,"46":-0.2912325323254323,"47":-0.3095252996564887,"48":-0.23240521963736832,"49":0.1411444460060047,"50":0.25557423603934215,"51":0.023804239302413804,"52":0.04776816382136438,"53":0.11689540917124157,"54":-0.06960502377583319,"55":-0.2892759143704509,"56":-0.015484647918012174,"57":0.10369279694191501,"58":0.24297794123869856,"59":-0.08934622114190603,"60":-0.010246187757907295,"61":0.15035091273130866,"62":0.09270742853542771,"63":-0.10733874219747114,"64":0.004362234737726295,"65":0.02555425582747561,"66":-0.09134510447876751,"67":-0.06935337469220713,"68":-0.06978365240335882,"69":-0.15009861689388232,"70":-0.12034463786471832,"71":-0.2798303273075596,"72":-0.013704014358471676,"73":0.050110904718604334,"74":0.0770674603550301,"75":0.07059016908559132,"76":-0.010580584424714466,"77":-0.17626972042991415,"78":0.17708652946556752,"79":-0.08004398018557496,"80":-0.05834441055694738,"81":0.28524650937540125,"82":-0.1455194127748057,"83":0.07283045107342506,"84":0.11436887696687378,"85":0.005294440805856023,"86":-0.19499848080653814,"87":-0.11530324174623395,"88":-0.20726620220768902,"89":0.20727266009051948,"90":-0.20688117409543444,"91":-0.22040777355820781,"92":0.43958182369492,"93":0.014999372998148066,"94":0.18211880661515345,"95":-0.010854824474031704,"96":-0.4286782497126922,"97":0.09285482865306488,"98":-0.19820238751913485,"99":-0.10994251026979661,"100":0.041845818659836644,"101":-0.16798291020502862,"102":0.4750414040207615,"103":-0.1341381933458218,"104":-0.25863462362777895,"105":0.029298206122492728,"106":-0.1716442894989166,"107":0.09799962929217007,"108":0.08737862943841451,"109":-0.1060937397960939,"110":-0.13693210286519855,"111":0.0179190369212474,"112":-0.35087639887188204,"113":0.0728576223110585,"114":0.13534072809550676,"115":0.06625564897447812,"116":0.157300781954235,"117":0.08163524738154078,"118":-0.030814572279047495,"119":-0.1041660606687976,"120":-0.38487867409592735,"121":-0.02987682562639895,"122":0.2777720086682846,"123":-0.11119460158512087,"124":-0.10896348310840404,"125":0.062200563967358354,"126":-0.07843353711546916,"127":-0.052839364566150245,"128":-0.39341496829217476,"129":0.010756375519098377,"130":0.2563943778470227,"131":-0.10886421851865,"132":-0.0059896249091069605,"133":0.1578314738116126,"134":-0.1167477266943914,"135":0.4878658675795865,"136":-0.3870194418281858,"137":0.08946695193494979,"138":0.2090587293429624,"139":-0.25039338190232796,"140":0.06478094147174268,"141":0.027304197604488212,"142":0.20065789400588657,"143":0.17245639086481013,"144":-0.2691279463344814,"145":0.2965557174476007,"146":-0.047687476692762444,"147":-0.3215766565626761,"148":0.04142331167920801,"149":-0.011814725704384998,"150":0.14964723045895767,"151":-0.14857098157628484,"152":-0.23975512208901276,"153":0.23175246078203032,"154":-0.11232496314891989,"155":-0.015114170639066619,"156":0.13597997255797756,"157":0.27118453819315536,"158":0.12675105748057344,"159":-0.0473591914012564,"160":-0.3890486446343553,"161":0.020001291378517635,"162":0.3018060813962402,"163":-0.20693819442412595,"164":-0.048288843750508736,"165":0.10899975901438376,"166":0.10660586732132334,"167":-0.19788561503070867,"168":-0.40846885990805176,"169":0.15495029117845538,"170":0.19602549167353076,"171":-0.19171355110075405,"172":0.10480609074761604,"173":0.11081354265560885,"174":-0.025519452537973584,"175":-0.06051627377519149,"176":-0.2750082418451945,"177":0.053758804947245574,"178":0.23208847627603835,"179":-0.13175601150087904,"180":0.11059251650026401,"181":0.1668634648538283,"182":0.28484163572313975,"183":0.011776995479995032,"184":-0.18972884015889135,"185":0.2925378806192455,"186":0.18539111161749203,"187":0.007405918901684353,"188":0.08456000991131163,"189":0.07987978645541424,"190":0.05163288228806625,"191":-0.058309827853410184,"192":-0.1558393340018566,"193":0.06688997170277981,"194":0.09965537775326601,"195":0.048443308857386826,"196":-0.023587289430149625,"197":0.29390324959350883,"198":-0.024550786065617895,"199":-0.08355988025253373}},{"sx":5,"sy":5,"depth":8,"w":{"0":-0.005202152115524942,"1":-0.05265163295709247,"2":0.040905213134059745,"3":-0.008996530136244983,"4":0.03883725656396601,"5":0.06867494852032334,"6":-0.11269812087858258,"7":-0.22918345246477206,"8":-0.16311477247246658,"9":-0.06818403146074554,"10":0.011374077148807013,"11":-0.09645290629496374,"12":0.05219007303507182,"13":0.016147854986333542,"14":0.04647808368212626,"15":-0.0503808845667297,"16":-0.04700765910911245,"17":-0.13881764612661082,"18":0.12704324238944423,"19":-0.07451800086780559,"20":0.000593909970462811,"21":0.09573759777938823,"22":-0.012295413937280602,"23":-0.10970761753937623,"24":-0.11644720471130171,"25":0.11570211322614218,"26":-0.12526599656967116,"27":-0.1829731242635719,"28":-0.08982653771305862,"29":0.050055070112870095,"30":-0.25562627577965874,"31":-0.12064005646398471,"32":0.07485969031182525,"33":-0.17143520107402938,"34":-0.02938404049362964,"35":0.05037006842253586,"36":-0.15359654372015735,"37":-0.11047859344152659,"38":0.01596137641085205,"39":-0.12407039430771483,"40":0.1436592043230314,"41":-0.16587860232082535,"42":-0.1397040716639173,"43":0.10435900083063114,"44":-0.1847518162123273,"45":-0.31955100981042617,"46":-0.22832075916346,"47":-0.1386366785466324,"48":-0.09349411237649696,"49":0.072807900061203,"50":0.004097811030398809,"51":0.016744987035313876,"52":0.09432439124785122,"53":0.18725357400844966,"54":-0.05338642701230149,"55":-0.004763633119783063,"56":-0.1516378879787678,"57":-0.118819100666464,"58":0.089190545605571,"59":-0.11468574766557162,"60":-0.032588732382421964,"61":0.041701389747787775,"62":0.0986993767729543,"63":-0.025573837003294953,"64":0.12753442958166644,"65":-0.05722668727946264,"66":-0.1476924274524375,"67":0.01965658957935033,"68":-0.15621496637044116,"69":0.11028121495514767,"70":-0.06267039645333349,"71":-0.13763864011883215,"72":0.21399097278158516,"73":0.068680502586234,"74":-0.0638304844202079,"75":0.008634085006052068,"76":-0.05499845508720113,"77":-0.02887374770168923,"78":0.06958633404830318,"79":-0.2675699263580146,"80":0.24268869109934152,"81":-0.08287998220082318,"82":-0.21840011999498515,"83":0.08300081868347038,"84":-0.34161721117017413,"85":-0.4649260642261978,"86":-0.2604194307975602,"87":-0.3529818748291496,"88":0.03435582301582465,"89":0.13330502749863637,"90":0.00789379123015055,"91":-0.01529124464254683,"92":-0.02560602269781545,"93":-0.14291875691044,"94":-0.33691724569793613,"95":0.12715992938419682,"96":-0.1871145213606633,"97":0.2155223756977125,"98":0.183942103144536,"99":0.013387521866017478,"100":0.2214472813367983,"101":0.12582044888257138,"102":0.047218480629945464,"103":0.03215160535962123,"104":-0.31291617792782345,"105":0.023205087068994806,"106":0.12799720327831557,"107":-0.11219324883726094,"108":0.0811667591141235,"109":0.22573109913449788,"110":0.26435503169445035,"111":-0.03732809183927658,"112":0.22829620248251659,"113":-0.1278153263365474,"114":0.12836930023440118,"115":-0.09947586166415717,"116":-0.01614828221068688,"117":-0.013872213464776224,"118":-0.1568491519705669,"119":-0.3411256192268071,"120":-0.01661305491149716,"121":-0.032077806555438355,"122":0.006966217313838051,"123":-0.02313529102337215,"124":-0.37585074183744227,"125":-0.16430438866345579,"126":-0.3302743321557086,"127":-0.5149241435192851,"128":0.09157256283109623,"129":-0.16084234663162641,"130":-0.0302547097074239,"131":0.08389711475302752,"132":-0.16273614937328704,"133":-0.17975631864933303,"134":-0.3528038782405466,"135":-0.2345848961257061,"136":0.1381997947494367,"137":0.09788843914737648,"138":-0.1478142644489301,"139":0.020258778789761102,"140":0.14159112203114424,"141":0.0008457345532740208,"142":0.0673362522756447,"143":-0.05922395819152478,"144":0.019036414088915817,"145":-0.04200092212097326,"146":0.08912704026933713,"147":-0.06492978110037916,"148":0.17787429306179603,"149":0.20993405583895733,"150":0.4604088789297838,"151":0.02921412575790765,"152":0.1475593953508888,"153":-0.10403959437146441,"154":0.10867859759568757,"155":0.11947073280443041,"156":-0.2083783439212803,"157":-0.024007562277261883,"158":-0.008954231739278624,"159":-0.21162014267941165,"160":-0.17920130965974135,"161":-0.23356661484515787,"162":0.0960235798400917,"163":-0.0952413165778402,"164":0.11272070307868443,"165":0.06358649529472733,"166":-0.10219439518593296,"167":-0.2976568043399032,"168":-0.008902724526031913,"169":-0.29671685735853365,"170":-0.1277930829626605,"171":-0.1618870471935598,"172":-0.006808686436631711,"173":-0.06876931319779588,"174":-0.205070475353539,"175":-0.17091149681983697,"176":0.006788679051128296,"177":-0.20236083738940763,"178":-0.21935717968233198,"179":0.06303466074270093,"180":-0.14214416968966076,"181":-0.07510724568744728,"182":-0.1657706029236991,"183":0.06012314248011509,"184":0.02110667545224252,"185":0.058301811457891865,"186":-0.15937628742898485,"187":-0.07612352157609366,"188":0.14609554996026444,"189":-0.02154402612140975,"190":0.25725747341784544,"191":0.08124403353436356,"192":0.030386732690804732,"193":-0.24752232849869366,"194":-0.006185791448189287,"195":-0.1635862768031729,"196":-0.003283313208238674,"197":-0.00804054457896614,"198":0.2604215304787273,"199":-0.05176779840929124}},{"sx":5,"sy":5,"depth":8,"w":{"0":-0.044975104553756744,"1":0.05716564571930006,"2":-0.06897929947303309,"3":-0.08070980552740953,"4":0.10592518470950243,"5":-0.11408550912195786,"6":0.021837721248574173,"7":0.36762661842205613,"8":-0.011505539699143313,"9":-0.09732409505401401,"10":0.09835087739168506,"11":0.03001058136390903,"12":0.07848738765225194,"13":0.03262744254760615,"14":-0.041863720137070924,"15":0.26330829347688883,"16":0.006776462092781423,"17":-0.09312558960012189,"18":0.03130844261433657,"19":-0.023779915274837315,"20":0.13435172730268466,"21":-0.053536372318650605,"22":-0.1752074554340357,"23":0.3304608817293807,"24":-0.07364534968607823,"25":-0.03822430548050619,"26":0.10185388657665864,"27":-0.10391702492947773,"28":0.0008460970404511243,"29":-0.2376786255175951,"30":0.026941189284959394,"31":0.12271858817551239,"32":0.0981432764294464,"33":0.020603569123237415,"34":-0.0769613914857589,"35":0.13946604190107953,"36":-0.03423867235613167,"37":-0.08078556339080889,"38":-0.10891876349194787,"39":0.052143823080087505,"40":0.12749970650646594,"41":-0.16138235980670745,"42":-0.1105767615197873,"43":0.006861357021746676,"44":-0.2680518413655691,"45":-0.18991875719760104,"46":-0.12006360591783707,"47":-0.09526429720440499,"48":0.07070150051604626,"49":-0.03288225602571109,"50":-0.13632210817147014,"51":0.003006745646292261,"52":-0.10873735428613095,"53":-0.10922432654807585,"54":-0.1432535891349775,"55":-0.059830096145471426,"56":-0.04013938496551456,"57":-0.13084499533378818,"58":-0.10484518538126703,"59":0.006984426994343903,"60":-0.14984194457921746,"61":-0.039779354624634944,"62":-0.16472835066802685,"63":-0.053055393624464105,"64":0.01875684147155759,"65":-0.09070104299659396,"66":0.06698877427893676,"67":0.12112482794587874,"68":-0.07804813307995855,"69":-0.1569935635611118,"70":0.1033907969358613,"71":-0.07986601696468915,"72":-0.0462874691694996,"73":0.08701568655058531,"74":-0.07306245558139428,"75":0.09884621982582197,"76":-0.042740971673489975,"77":0.029141949249121116,"78":0.05964466990054523,"79":0.012148450670778254,"80":-0.11597262507626767,"81":-0.08989063839823762,"82":-0.17179399603100234,"83":-0.029904802533958955,"84":-0.15233122457937417,"85":-0.17395347749469398,"86":-0.15341427152866727,"87":-0.2328176980787094,"88":-0.007824903469712317,"89":-0.07977938452550873,"90":-0.0702073087405017,"91":0.010388796650346975,"92":-0.13050254573702483,"93":-0.13794218693429938,"94":-0.25434680402173704,"95":-0.17932102880896242,"96":-0.0549459918221316,"97":-0.13546371420391623,"98":-0.10553169881898125,"99":0.03360190607026402,"100":-0.13363005076026593,"101":-0.1451362990980321,"102":-0.18815785571173008,"103":-0.20037386868178123,"104":0.05346774848467669,"105":0.04024182704591303,"106":-0.028359721672567263,"107":0.09814772624391829,"108":-0.10287596240026904,"109":-0.01208455387212917,"110":-0.1786957493499265,"111":-0.2170112846150588,"112":-0.09442208135573558,"113":0.2442851192893053,"114":0.14456208537788534,"115":0.021589747866641213,"116":0.010646536490616306,"117":-0.10586105149394485,"118":-0.022969361162197263,"119":0.0633381833921257,"120":-0.11475443942796694,"121":-0.22803752573512312,"122":0.02660309386162343,"123":-0.00932457944386137,"124":-0.11629602726351701,"125":0.042130790187832626,"126":-0.15133923505036084,"127":-0.19477245984002786,"128":-0.051985903329825035,"129":-0.07252222922137651,"130":-0.024174680374663943,"131":-0.07207272754283996,"132":-0.09951529187143497,"133":-0.08451371340370269,"134":-0.1695343264626811,"135":-0.2611292016381317,"136":-0.10355587419864412,"137":0.07215333949724688,"138":-0.10980711131439146,"139":0.03886267552548023,"140":0.002571098323889994,"141":-0.047375111993226054,"142":-0.3098750792605421,"143":-0.12069391504472914,"144":0.030860402536586132,"145":0.19530022384445014,"146":-0.16354237600156862,"147":-0.12596523090700223,"148":-0.01411351360569521,"149":-0.04586347454499269,"150":-0.025841042709887397,"151":-0.03748774132711338,"152":-0.06966485408540282,"153":0.2926334983609671,"154":-0.15900869675729,"155":0.14703786115211834,"156":0.12755430284006725,"157":0.1608441517639448,"158":0.27728248197856187,"159":0.1966362265893922,"160":0.025604822304806395,"161":-0.17460144822703993,"162":0.08558810693449623,"163":0.04245830156197487,"164":-0.061593368932451584,"165":-0.13281670244962265,"166":-0.22195211551198735,"167":-0.014424950912051353,"168":-0.008515868350153012,"169":-0.035537291863622006,"170":0.09044636653010436,"171":-0.09794776978283176,"172":0.06424451995323269,"173":0.03232958819693027,"174":-0.2667685079996365,"175":-0.050941698784366024,"176":-0.07446432087660891,"177":-0.17858621350878895,"178":0.15075606238002498,"179":-0.08516254101752715,"180":0.02512964618539526,"181":-0.014287407232512482,"182":-0.14602110532214535,"183":-0.09095285301333607,"184":-0.022786861645380053,"185":-0.001104889596437516,"186":0.02467782262697891,"187":-0.1517110133308067,"188":0.10863230519421613,"189":-0.04012035639849915,"190":0.02143775862893752,"191":-0.025714505713602717,"192":0.006119582198061829,"193":-0.12468177759120347,"194":-0.025768124929707065,"195":-0.033941287932896406,"196":-0.0850551987244036,"197":-0.14317284448395737,"198":-0.08774684573384754,"199":-0.08636665539765205}},{"sx":5,"sy":5,"depth":8,"w":{"0":-0.2332253036535618,"1":-0.09346394593657784,"2":-0.07596189448814455,"3":-0.17000268418898204,"4":0.14574662886461023,"5":-0.05013980665703444,"6":0.1399806112918664,"7":-0.036877871702526016,"8":-0.19629204696907918,"9":-0.17401662399107373,"10":-0.05598954873808166,"11":-0.2208344955134639,"12":-0.06757603674980789,"13":-0.13515480895564858,"14":0.024796022489265355,"15":-0.01744356474066017,"16":-0.3388069867649009,"17":-0.04266967676672241,"18":-0.011005770217830568,"19":-0.19783812968488354,"20":0.15476220635375676,"21":0.18828556952599013,"22":-0.09370316503865754,"23":0.05186760053715227,"24":-0.3295806328669431,"25":0.09867005425819558,"26":-0.15029227051314356,"27":-0.2368317217844099,"28":0.06471911346272474,"29":-0.08398087008658986,"30":-0.10694239342501366,"31":0.05755919911410749,"32":-0.21681559424705046,"33":-0.03302378195920457,"34":-0.06625617769473927,"35":-0.22108305001143042,"36":0.0676042167255672,"37":0.055177816175167,"38":0.042350447881201785,"39":0.08618571173802082,"40":-0.2646180382600188,"41":-0.13790706618939993,"42":0.007241969253798369,"43":-0.35038885136304804,"44":0.10770206560349083,"45":0.13187428257221429,"46":0.1822506473242022,"47":0.02906839321635558,"48":-0.20655906697794973,"49":-0.08336303228749135,"50":-0.05121299026980073,"51":-0.11244067462350911,"52":0.06126164462694206,"53":-0.03432936037937389,"54":0.0021728313511480573,"55":-0.07661337565637895,"56":-0.3880694142073883,"57":0.01623700845591485,"58":0.166579372307152,"59":-0.2466430947532064,"60":0.10873790504812401,"61":0.080938376410678,"62":-0.03975694996439018,"63":-0.14638567706861325,"64":-0.371493006976257,"65":-0.21892477763257448,"66":0.037485526539904744,"67":-0.1977331332236206,"68":-0.03569689549452353,"69":0.12182406507239826,"70":-0.11475261824429786,"71":0.08096367502029979,"72":-0.4167164700224942,"73":-0.18024595622130618,"74":-0.04121583529295923,"75":-0.2224536014385003,"76":0.2598541834108203,"77":0.1459168655832535,"78":-0.1363236177055983,"79":0.10081061145875823,"80":-0.1959404991798294,"81":-0.2036949845283954,"82":0.14370043783911166,"83":-0.1953557076640791,"84":0.045520168789173567,"85":0.06198868372588713,"86":0.30062765803150443,"87":-0.010543255250772581,"88":-0.22029677326312355,"89":0.01829937012595626,"90":-0.13211436523186834,"91":0.02621712028348191,"92":-0.1384738517860639,"93":0.11899074713291512,"94":0.025223606124017174,"95":-0.03019278887964443,"96":-0.25017729545269896,"97":-0.12081004321047742,"98":-0.2501516440762729,"99":-0.1251870330313245,"100":-0.07920251567348102,"101":-0.08777267115571022,"102":-0.1368184648661038,"103":-0.010618161410189413,"104":-0.12065874091451252,"105":-0.0575046388709518,"106":-0.0771352670632175,"107":-0.3006729810668154,"108":-0.1659531743623651,"109":-0.06525652723670865,"110":0.07446740868167949,"111":0.0517648252128134,"112":-0.29218601118241827,"113":-0.09734911464022719,"114":-0.1032073250177718,"115":-0.18986141625284836,"116":-0.0475439764837593,"117":0.11176354845802906,"118":-0.16411128418786503,"119":0.236278972771606,"120":0.05591374544475014,"121":0.1480020134009441,"122":-0.09185228802628892,"123":-0.15736359349139065,"124":0.3708652945021862,"125":0.11088402836523223,"126":0.09480870818775487,"127":-0.31230001197483137,"128":-0.020806897296549758,"129":0.17574309609342764,"130":-0.026257011519738967,"131":-0.2986452862434657,"132":-0.03492434162888011,"133":0.287360988244029,"134":0.26918044160458077,"135":0.1676069959243772,"136":-0.29554746203971344,"137":0.023755214184568014,"138":-0.1693867875099817,"139":-0.08605217551959468,"140":0.028051222333549956,"141":-0.07425824911686275,"142":-0.06347261658043259,"143":-0.1840661331564452,"144":-0.008589361037226581,"145":0.30234146698747294,"146":-0.0905299455388227,"147":0.008811910896220524,"148":0.022239565025289326,"149":-0.09726624289372172,"150":0.14267235853637092,"151":-0.21025994791543665,"152":0.003957302323983188,"153":0.18509069816678897,"154":-0.09103089769896015,"155":-0.2719687492962917,"156":-0.010670367888638302,"157":0.0692266282001842,"158":0.225595103618519,"159":0.0967459699521036,"160":0.2788292680264073,"161":0.13400460692940835,"162":-0.09603334931225528,"163":0.11779696819098612,"164":0.15009074961620583,"165":0.21120533119251378,"166":-0.02918548348301098,"167":-0.03452328061470966,"168":0.16976920907684476,"169":-0.049426949951223056,"170":0.03988327393433008,"171":-0.14148328206215996,"172":0.4335679356545913,"173":0.18932969035608788,"174":0.6652710277072671,"175":0.11960022991749185,"176":-0.03929168618227592,"177":0.11423867831204994,"178":-0.3387755777072629,"179":-0.1281882332296391,"180":0.028502577217992982,"181":-0.22253061392403364,"182":0.13971763978968524,"183":-0.5014158109492429,"184":0.29966658757405584,"185":0.25321656224579503,"186":-0.16490726582702275,"187":0.23422514936354344,"188":0.19289110633389897,"189":0.2428833380762873,"190":0.2247947150624134,"191":0.16573142744018135,"192":0.16408899715767697,"193":0.06290783614705468,"194":0.20511846574735476,"195":0.1129685134042151,"196":0.3434401787061774,"197":-0.053128705702033936,"198":0.7608338903535998,"199":0.03798492454698721}},{"sx":5,"sy":5,"depth":8,"w":{"0":0.14786364912762434,"1":-0.01237639329575034,"2":-0.0767202499993355,"3":0.02603810766122924,"4":-0.009121707203740989,"5":0.0656404160859142,"6":-0.35668756041313343,"7":0.07667550855406981,"8":-0.2227089260115945,"9":0.0028798049835131886,"10":-0.15051469571772966,"11":-0.16283460201263958,"12":0.09289397886411507,"13":0.09121473308758644,"14":0.025214689394614055,"15":-0.005846986487159711,"16":-0.144236824572804,"17":-0.0747252050334329,"18":0.008555368163713844,"19":0.017059329352224442,"20":-0.18892940926873944,"21":-0.2043747067817994,"22":-0.18103319677281837,"23":-0.19811845983831464,"24":0.03171092572248421,"25":-0.03500715327732908,"26":-0.1353193458693104,"27":-0.12100516589301302,"28":-0.28115301034560997,"29":-0.23607502264228883,"30":-0.34376694151650267,"31":-0.19581397748386775,"32":-0.0760924086460113,"33":-0.029792824336618014,"34":-0.19730358217992103,"35":0.022218068257653815,"36":-0.22425374158450162,"37":-0.17181787900613027,"38":-0.27469198257230454,"39":-0.10269906318785901,"40":-0.01518266005251498,"41":-0.03535179342784217,"42":0.21815187220493987,"43":0.023719411794163668,"44":0.15930052935574235,"45":0.1933006711897887,"46":0.1591083185591346,"47":-0.06732728398585851,"48":0.10442013405072251,"49":-0.19016843203608164,"50":-0.02802104963489589,"51":-0.00993344621950087,"52":-0.07275348118777616,"53":-0.06696088704791003,"54":-0.07751460484612872,"55":-0.1750462841825248,"56":-0.04332878730421921,"57":-0.009149920569027147,"58":-0.09538644635528619,"59":-0.06409227905517825,"60":-0.07492185424114968,"61":-0.13284289079889833,"62":-0.22823123826963038,"63":-0.3318683157780844,"64":0.015690834515263714,"65":0.0777922244606576,"66":-0.2593880521837481,"67":0.07650533711184168,"68":-0.19116754222282106,"69":-0.2712601079439751,"70":-0.15374149172834856,"71":-0.2675031209907119,"72":0.1047071663786394,"73":-0.046588529744850976,"74":-0.10102851165639534,"75":-0.06128046881489482,"76":-0.22166936213165475,"77":-0.24726442272482732,"78":-0.17259775740648026,"79":-0.29106884062683014,"80":-0.16184616996078754,"81":-0.09343619058846675,"82":0.23259911550515153,"83":-0.031198908875272668,"84":0.11220319860891,"85":0.1826941451204482,"86":0.3249168469877993,"87":-0.2269498083362932,"88":-0.06584252197827392,"89":-0.12573581457190178,"90":0.09916934812334996,"91":0.0448222592709089,"92":-0.0451906953161847,"93":0.23053797935853157,"94":-0.020455483101456375,"95":-0.13643496067507468,"96":0.05482202867525145,"97":0.09081209017380527,"98":-0.0043224721123171495,"99":0.004464947758255746,"100":-0.22822931446742709,"101":-0.1276008376771968,"102":-0.11928943290247565,"103":-0.05618475366847342,"104":-0.21580344211593708,"105":0.04113064237834249,"106":-0.05965716597968748,"107":-0.10382869619941128,"108":-0.11616566006149157,"109":-0.19177230145581065,"110":-0.022920629719118773,"111":-0.04076557372916237,"112":0.06632156893107391,"113":-0.017831787132326735,"114":-0.015340903778751944,"115":0.0631203238394379,"116":-0.1718989648118241,"117":-0.17683770033508625,"118":-0.06354797520979578,"119":-0.07333747970194426,"120":-0.03926659135158173,"121":-0.04919136921042304,"122":0.04309299729412009,"123":0.011695558881444874,"124":0.2646537761943623,"125":0.031130540692761277,"126":0.11393390933520701,"127":0.08388382184464432,"128":-0.14997800871521863,"129":-0.011052389688787845,"130":0.22976965424025883,"131":-0.05887368880637214,"132":-0.014546230334458824,"133":0.22342204346603642,"134":0.11782331991203246,"135":0.009087142785254911,"136":0.03963297748211969,"137":0.16197550811295086,"138":0.19716669816121302,"139":-0.03942803041692493,"140":-0.07046827323447456,"141":-0.03818821745348858,"142":-0.17395788003748833,"143":-0.1598940311399053,"144":-0.16062136479005332,"145":-0.057528391626618595,"146":0.1615942620485854,"147":-0.07006808797727271,"148":0.04659931350573811,"149":0.1815974129045199,"150":-0.02915191056668967,"151":0.09283705635071486,"152":0.09240613987831733,"153":-0.027689209808125184,"154":-0.10355399943997559,"155":0.036852728121143624,"156":-0.20173485897771917,"157":-0.14059314257110456,"158":-0.2565972775468783,"159":-0.4196939076635998,"160":0.1326641207431185,"161":-0.13471483174689422,"162":-0.04046274708262126,"163":0.01089677899748568,"164":0.011061061198004866,"165":0.10678681739803261,"166":-0.006338520765752373,"167":-0.058088596127214724,"168":0.0830164544990795,"169":0.07826879289736026,"170":-0.13714463946391714,"171":-0.00662137282813835,"172":-0.041754234979018326,"173":-0.08756411712095143,"174":0.1062332873605884,"175":-0.10155783607930745,"176":0.1268655739087515,"177":-0.0004785082157970138,"178":-0.050110635770108984,"179":0.00876616151189849,"180":-0.03757407233385341,"181":-0.0040499921632419665,"182":-0.05182784370772493,"183":-0.1290500424968356,"184":-0.07260411568702989,"185":0.09740207909472898,"186":-0.09804178510056953,"187":-0.15724338955285802,"188":0.13743239082187525,"189":0.0915672473375352,"190":0.06663789924575256,"191":0.187358484671785,"192":0.024573510917657294,"193":-0.05307779281688732,"194":-0.142413272496317,"195":0.15257017438400902,"196":0.01076030490563544,"197":-0.09265513673609665,"198":-0.14382677817108477,"199":-0.18064314325664463}},{"sx":5,"sy":5,"depth":8,"w":{"0":-0.06428122652641752,"1":0.0028236484187178085,"2":-0.10560430125598586,"3":0.1557544544419825,"4":-0.041164337829043295,"5":0.007122049221275725,"6":-0.18347566132743956,"7":0.1323189326937903,"8":0.027206802964056608,"9":0.06134181712044571,"10":0.03790377712578053,"11":-0.0020809287397637343,"12":0.07466803839826147,"13":0.18516672416996388,"14":0.026027956878214943,"15":-0.16031461787805973,"16":-0.1082753498620204,"17":0.1060509610001243,"18":0.13644936402301192,"19":-0.08308032499735149,"20":0.04423110101433142,"21":0.005570991314987043,"22":0.1690855049366607,"23":-0.1698296970398408,"24":-0.1474508602846179,"25":0.0812128148528302,"26":0.026130714818379256,"27":-0.042366467862035094,"28":-0.03912258225061983,"29":0.1290004394251376,"30":-0.02547020389668157,"31":-0.24931491389587776,"32":-0.0989533315236149,"33":-0.06228125689487561,"34":0.11862793220483507,"35":0.10288736451757972,"36":-0.01794977343280734,"37":-0.16179208612175702,"38":-0.03718374347963195,"39":-0.3290316041329001,"40":0.028554770254110646,"41":0.0280650712301246,"42":-0.052162964419022594,"43":-0.004746319480586842,"44":-0.03052758540814525,"45":-0.004278108450803869,"46":-0.1450385489058697,"47":0.20534079389286727,"48":-0.10047137538754368,"49":-0.03349910548077819,"50":-0.029783001262711894,"51":-0.055850412989265914,"52":0.05840911352276684,"53":0.02462810481596016,"54":0.025880184927507988,"55":0.1760015690414848,"56":0.10546437127755943,"57":-0.0998830039150399,"58":-0.07798654453790539,"59":0.09448560135190971,"60":-0.10731267872411449,"61":-0.010549651941374779,"62":-0.012083867078021492,"63":0.18094978948504806,"64":-0.023473829805586096,"65":-0.01953850934469649,"66":-0.06056203354858133,"67":-0.042969038293162565,"68":0.03479040693854763,"69":-0.0016385733771516957,"70":-0.03777235720893892,"71":-0.007796703877777342,"72":0.04801036013743824,"73":0.021310885542843477,"74":-0.010050764456336923,"75":0.051211047277715735,"76":-0.024859263151382507,"77":0.0848576687284757,"78":0.0644916390581313,"79":-0.019075722873809133,"80":0.0016219916702205773,"81":0.01615803274096026,"82":0.15902892737501675,"83":0.01662285677730429,"84":0.09279079294125625,"85":-0.005189032371390952,"86":0.04280567128095466,"87":-0.03895148946746248,"88":0.12166953444219464,"89":-0.08095532981157368,"90":-0.13253102676444375,"91":0.04426431556707324,"92":0.030092009798529294,"93":-0.09373411015651227,"94":0.026353208687854634,"95":-0.022506084500684854,"96":0.046652154716517756,"97":-0.03892507845119316,"98":-0.13432978596748693,"99":0.04187770712077246,"100":-0.1196378519498097,"101":-0.21169902533211762,"102":-0.17746390878856266,"103":0.05884066888022362,"104":0.03429525981904649,"105":-0.12842305052827452,"106":-0.13698552161738098,"107":-0.022533056387262836,"108":0.03967192893455866,"109":-0.1003553530851377,"110":-0.12344410379039003,"111":0.1517067695395896,"112":0.031931727489062915,"113":-0.060102342100436704,"114":-0.09326115686045056,"115":0.04802594110336102,"116":0.008540127105826969,"117":-0.06211360071657963,"118":0.0030668060894450586,"119":0.009222251029334822,"120":0.04295026763758264,"121":-0.06748330708855362,"122":0.10520630983574221,"123":-0.06036175864261215,"124":0.04627574454607099,"125":0.04250206535882508,"126":0.20477061478665784,"127":-0.06553722042051655,"128":-0.03346868323803543,"129":-0.0019982059010732363,"130":0.08533618264431687,"131":-0.08637607474669055,"132":-0.12354651955027247,"133":-0.07892629822735957,"134":-0.27090846139121655,"135":-0.05780856812658082,"136":0.03633929838631469,"137":-0.04661953176467632,"138":-0.16182193738552994,"139":0.0459394271124787,"140":-0.15270576949960948,"141":-0.1172152723159157,"142":-0.19553049994739155,"143":-0.3342602674307574,"144":-0.020434870760545905,"145":-0.1176525781952491,"146":-0.2949494418407411,"147":0.07213227505230112,"148":-0.23662320547023896,"149":-0.13149601491224058,"150":-0.21588329672488762,"151":-0.185498219311985,"152":-0.02386421509875725,"153":-0.05723733278351837,"154":-0.04037637570877056,"155":0.07854951439420338,"156":-0.014319690853386385,"157":-0.09412305869641284,"158":-0.04093302191332732,"159":-0.01510346359481704,"160":-0.15788376850782965,"161":0.013552614287190248,"162":0.11010044602978197,"163":-0.16078941961418672,"164":0.03496210061863088,"165":0.011197815078564101,"166":0.1970577835117335,"167":-0.07338688266279225,"168":0.07021052452987625,"169":-0.003247331601440661,"170":0.12329097943836372,"171":-0.08127907589432255,"172":-0.10368060614160099,"173":0.017091303536763063,"174":0.10241450589834908,"175":-0.14681212200528068,"176":-0.052138811212540395,"177":-0.06789866106150906,"178":-0.0852052393139959,"179":-0.007648019607391995,"180":-0.06503799056201932,"181":-0.03952605024980344,"182":-0.17715383504622642,"183":-0.20963596210629062,"184":-0.04898882567302802,"185":-0.03736773961355862,"186":-0.09022109116458604,"187":0.08713351701101539,"188":-0.12651037792803815,"189":-0.19062252516507827,"190":-0.15430120733113828,"191":-0.18171142144757688,"192":-0.08341706356462425,"193":0.030203135406314644,"194":0.0995326437330919,"195":-0.07914501377758455,"196":-0.15926168828335563,"197":-0.12012768130926307,"198":-0.07216853350090217,"199":-0.12363826897717345}},{"sx":5,"sy":5,"depth":8,"w":{"0":-0.3364828491233791,"1":0.20252153887901883,"2":0.09051428635271075,"3":-0.12593551445800902,"4":0.14017303598753744,"5":0.09522582843328879,"6":0.2611353875098478,"7":0.09389815594850981,"8":-0.2884796273046332,"9":-0.028994844519332284,"10":0.02136736866815545,"11":-0.3659490350853742,"12":0.11106019771880414,"13":0.07518395325397494,"14":0.4463727942698977,"15":0.10521342203537404,"16":-0.3311642589877092,"17":0.08556602540174321,"18":0.14716855526140313,"19":-0.12329714789243336,"20":-0.015788023199691758,"21":0.20658504203935518,"22":0.2720103853514817,"23":-0.1639263333515898,"24":-0.23784205735146277,"25":-0.012940376111103642,"26":0.009023403392480497,"27":-0.2071945491677117,"28":-0.08541706382213153,"29":-0.011540584772958117,"30":-0.22204423252779118,"31":-0.012461022348586277,"32":-0.38319030691521533,"33":0.19997558981247718,"34":0.040056550638674866,"35":-0.05690901937299368,"36":0.11252732839534559,"37":0.2720902916900348,"38":-0.04845270098979637,"39":-0.026795456049428085,"40":-0.1482727197438394,"41":-0.04132248023730576,"42":0.18430507966790205,"43":-0.17956893470167093,"44":0.04882105795888127,"45":0.1785402380551955,"46":0.25771561861743353,"47":-0.09164660956844023,"48":-0.26471176650103945,"49":-0.05113590857717565,"50":0.16551381284118813,"51":-0.1356335605985322,"52":0.2114580751857357,"53":0.07815761488141827,"54":0.28196125160923774,"55":-0.14282972452165568,"56":-0.3187057705615377,"57":0.24729552396789015,"58":-0.16653625160427832,"59":0.030489887281882587,"60":0.15131725189877065,"61":-0.12679194437643165,"62":-0.04073202925947322,"63":-0.11166351261969641,"64":-0.238291154169747,"65":0.15412765656961458,"66":-0.017356861936425813,"67":-0.03930492118587624,"68":0.0074020709544003966,"69":0.21021483049138012,"70":-0.053308448285427405,"71":0.10818703429718739,"72":-0.3803787277570205,"73":0.19903348444611782,"74":0.13896283219965017,"75":-0.21960883911622148,"76":0.21725122013907264,"77":0.06531504945928261,"78":0.030643023194881238,"79":-0.09389819225847561,"80":-0.10637244724565134,"81":0.016538646736028843,"82":0.1053046185945465,"83":-0.04147591241064542,"84":0.1526302404275411,"85":0.13066743188566476,"86":0.295976874226427,"87":0.036191342198126086,"88":-0.36562777125482626,"89":0.10112533551434635,"90":0.15701570107474272,"91":-0.09914116516284494,"92":0.08656533851566828,"93":0.0944366620512885,"94":0.2006079255944373,"95":-0.301802160722612,"96":-0.43809633464242953,"97":0.1496891771839291,"98":-0.08206311139571953,"99":-0.2621896230226525,"100":-0.06507465214999807,"101":-0.1761833051508315,"102":0.07900917851614132,"103":-0.05889498825905716,"104":-0.3127183013265285,"105":0.02405114386396637,"106":-0.018964493439300345,"107":-0.09704609994402662,"108":-0.05651750989816278,"109":0.09714269679399677,"110":-0.022942733785948115,"111":0.22214357707441942,"112":-0.43557082725641416,"113":0.23231463538915345,"114":0.20263643921442662,"115":-0.23368483396404421,"116":-0.046956049099693614,"117":0.10198913677000326,"118":-0.06567772483691292,"119":0.3894386549830762,"120":-0.06520318536941136,"121":0.1595371617928996,"122":0.10766755868910481,"123":0.10898273913003927,"124":0.0330888829723831,"125":-0.14024604550710276,"126":0.19135701626422807,"127":-0.09464008169076646,"128":-0.09217032204754735,"129":0.018364587247054122,"130":-0.014766238765824958,"131":-0.1130002030654896,"132":0.15871711459815577,"133":-0.030613638797027307,"134":-0.04449120262485508,"135":-0.09738379378680555,"136":-0.27521655525244226,"137":0.17886992580938296,"138":0.10503189620939823,"139":-0.22792433175734572,"140":0.15273699061007123,"141":0.323136634633812,"142":0.21753182563109802,"143":-0.027594444957071928,"144":-0.33266421934306906,"145":0.2697572640647069,"146":-0.04601071695853912,"147":-0.17265732473798748,"148":0.018334065662887956,"149":0.137040722613929,"150":0.05924921337894355,"151":0.08788354611003422,"152":-0.278772111683767,"153":0.23486618260141565,"154":-0.16140150691490174,"155":-0.2413308848004844,"156":0.020162624670063,"157":0.1219174713313241,"158":0.08234842051494069,"159":0.20180141683028768,"160":0.0062168826916824,"161":0.0275905145924014,"162":-0.2472143280969488,"163":-0.013286176049659839,"164":-0.018294002620244432,"165":-0.10603057921003203,"166":0.07733072404804449,"167":-0.22626864540207073,"168":-0.04110697000041672,"169":0.16577951708246538,"170":-0.1368328305153428,"171":-0.05497605596020451,"172":-0.11936631883713066,"173":0.11825791952422732,"174":0.10899911933215374,"175":-0.1620510112223988,"176":-0.09413489915263051,"177":0.012860851866106675,"178":-0.11488298770922106,"179":-0.14738149298776043,"180":0.0978631262270589,"181":-0.039982534329689894,"182":0.07320900080445886,"183":-0.07518636905948246,"184":-0.1542747652169629,"185":-0.1226729297721175,"186":-0.1698623248645633,"187":-0.10981103738100671,"188":-0.03462495581910869,"189":0.0034356257013342098,"190":-0.07763774362813455,"191":0.16544809847604622,"192":0.05470520024960259,"193":-0.07058123936244835,"194":-0.11383140721709868,"195":-0.04590307557800978,"196":0.16999166979572944,"197":-0.14967786097897087,"198":0.4375978313028196,"199":0.1536794660385009}},{"sx":5,"sy":5,"depth":8,"w":{"0":0.08024657283102993,"1":-0.012211452015139899,"2":0.026098200003292608,"3":-0.021576230120418267,"4":0.048201291421161,"5":-0.044332316179412454,"6":0.14856791641678913,"7":0.3729876370998598,"8":-0.04565676009482448,"9":0.07111872696516668,"10":-0.06440624121391646,"11":-0.03176689816032379,"12":-0.012683860569012974,"13":-0.2437306197122951,"14":0.008125453820963907,"15":0.10332503173076103,"16":-0.1784497886596447,"17":0.09651330026228948,"18":0.04880106999621995,"19":-0.09130773838927947,"20":-0.16715975226346977,"21":-0.028248809344090454,"22":0.020704255526583764,"23":-0.024725710852847395,"24":0.07210790857965618,"25":0.07431692520822913,"26":0.030699123367982844,"27":-0.19296922459002083,"28":-0.01754117422033499,"29":-0.09985419379886132,"30":-0.019189602224777363,"31":-0.1057093110191437,"32":-0.011103814108520817,"33":-0.0073276031330786855,"34":-0.11031564368843945,"35":0.028864087764181326,"36":0.0038986282871999968,"37":0.08325798678971519,"38":-0.005620230522946214,"39":-0.02624957047342941,"40":0.11211402237378341,"41":-0.14260031561861758,"42":-0.11305950866529656,"43":0.008737548689308736,"44":-0.15414546285463818,"45":-0.19763588669756302,"46":0.1625964064612121,"47":-0.002288663952003262,"48":-0.00010807084737007584,"49":-0.023861573793344918,"50":-0.15489179118234778,"51":0.02229493238550306,"52":-0.24482817240100926,"53":-0.13169993782438644,"54":-0.050892983642234345,"55":-0.11972012381846696,"56":0.04894807516814373,"57":0.07967193956509366,"58":-0.1362084499593897,"59":0.0009815022598846875,"60":-0.18030803605079398,"61":-0.2448602325217119,"62":-0.15736797873473193,"63":-0.09147581784849572,"64":0.0240318676171392,"65":0.010842261178354922,"66":0.0033739282011396557,"67":0.06761483416953154,"68":-0.0174553602422227,"69":-0.0017864336866796576,"70":0.1795249241180802,"71":-0.0050539080690632605,"72":-0.09092831291588326,"73":0.2529981436287522,"74":-0.02612179599554182,"75":0.07935045187897259,"76":0.09029368842456256,"77":0.014678677435375223,"78":0.08722599835786665,"79":0.004174752169885623,"80":0.01557044687378149,"81":-0.12803449687876595,"82":0.07296896546323542,"83":0.026309043265911186,"84":-0.250402327971048,"85":-0.011170007625406594,"86":0.008411995968950153,"87":-0.15165440265061475,"88":0.052619841536543636,"89":-0.023976353410044535,"90":-0.06290865761310122,"91":0.05540297416964185,"92":-0.27597860467728275,"93":-0.11920746634031147,"94":-0.1896128647867279,"95":-0.36512253924310095,"96":-0.04145929555670528,"97":-0.09977386533858364,"98":0.07977445135137812,"99":0.040812246677210944,"100":-0.22532068723721113,"101":-0.024799862937088413,"102":-0.26114532492282433,"103":-0.2531880544942476,"104":-0.0408653555308378,"105":0.06293952931814643,"106":0.06021223975497327,"107":-0.15783057595175887,"108":-0.11520656283270163,"109":-0.033571687719437214,"110":0.2065929265115035,"111":-0.08015885774821534,"112":-0.12397906525341273,"113":0.2838522653435982,"114":0.04582470497444687,"115":0.03031049822014795,"116":0.004420477898047251,"117":0.15738634695019463,"118":0.14228922560834875,"119":0.066605867088138,"120":0.05714305485791126,"121":-0.29624433951122475,"122":0.05271525917166269,"123":0.04084183317104252,"124":-0.13018810293048244,"125":-0.05450684988563775,"126":0.029527068683205874,"127":-0.2900356659446814,"128":-0.04387082780844673,"129":-0.08744764946185876,"130":-0.0010525056939207477,"131":0.03986780329262742,"132":-0.14815332680396215,"133":0.09355594912080513,"134":-0.14399814494651894,"135":-0.3427062533730156,"136":0.005242046073674961,"137":0.07837694310991901,"138":-0.18340635227502583,"139":-0.0030016646904070018,"140":-0.18286744044467773,"141":0.08807044021935512,"142":-0.27693447812819977,"143":-0.22293101007098093,"144":-0.05325601890726746,"145":0.044172456449227786,"146":-0.09851559834327861,"147":0.03150646330659282,"148":0.08257250018141672,"149":0.2824394783667751,"150":0.14070397076457702,"151":0.05144453731237575,"152":-0.19228772149053833,"153":0.21638237941187013,"154":-0.06008120074166804,"155":-0.05668852173144141,"156":-0.004074571665025897,"157":0.19455047943192894,"158":0.3535091831081959,"159":0.15682819496828077,"160":0.08818760061735789,"161":-0.12880251083331062,"162":-0.25372910116928926,"163":0.05935338645157535,"164":-0.021473489343748195,"165":-0.05896599091617251,"166":0.043076373646603584,"167":0.27157715016836825,"168":0.11450655165529286,"169":-0.2078933015387121,"170":-0.20096999111403066,"171":-0.15901503791235622,"172":-0.02143163102877281,"173":-0.1638864870952521,"174":-0.0883550037703273,"175":0.1286206287118557,"176":-0.04769244562856484,"177":-0.2963142583918619,"178":-0.11057625249143248,"179":-0.3094432920983893,"180":0.027892830172271215,"181":-0.1824729498980482,"182":-0.17938834170003223,"183":-0.05174803514310608,"184":-0.032278548123038875,"185":-0.18875110778745183,"186":-0.17594136165532234,"187":-0.1255217632603854,"188":-0.07377328709253307,"189":-0.22849592755894407,"190":-0.12262701474673764,"191":-0.16164502339783932,"192":-0.11787145848617796,"193":-0.09528711513029267,"194":0.08158333716860525,"195":-0.2601527635173629,"196":-0.12212029801383106,"197":-0.2106438787239346,"198":-0.05651088255741351,"199":-0.061527639173873064}},{"sx":5,"sy":5,"depth":8,"w":{"0":-0.029545883351246423,"1":0.06635867925500302,"2":0.08127498409880081,"3":-0.03729124124313766,"4":0.15788241711423764,"5":0.17458817456774486,"6":0.5011623217801979,"7":-0.0982113676551195,"8":-0.0769702085340883,"9":0.133210815380169,"10":-0.07279895619897461,"11":0.08618311993510484,"12":-0.14151721798701122,"13":-0.1368403575267196,"14":0.23498272724064687,"15":-0.19868937322539462,"16":-0.06939495558229548,"17":0.15562887811388124,"18":-0.09716665182362733,"19":0.01998252377751185,"20":0.09093148635705894,"21":0.11634573622774792,"22":0.24081468364332867,"23":0.16518969289781413,"24":-0.02586884024185331,"25":0.014094145381033093,"26":-0.023568303775225927,"27":-0.17891389805914856,"28":0.13796923491141833,"29":-0.07320521819497666,"30":0.3961803106951248,"31":-0.11631587725641904,"32":-0.1176394024519236,"33":0.13073645132042788,"34":-0.1395262490905234,"35":0.038469742032141124,"36":-0.11693609066768866,"37":-0.03797306053033002,"38":-0.03342509388780766,"39":0.1555244025519689,"40":0.20161898584552065,"41":-0.08584937821565054,"42":-0.1837509630832424,"43":0.03565870446237284,"44":0.18231634104611966,"45":-0.0981605813610231,"46":0.31670483063658494,"47":-0.07741375464680862,"48":0.16818382137501262,"49":-0.047450867380100306,"50":-0.19047893565853147,"51":-0.06779103338552162,"52":-0.10505250666965725,"53":-0.036360978105308646,"54":-0.06396380151328161,"55":-0.15923236248846315,"56":0.030292206460394405,"57":-0.09637759591052329,"58":-0.13717877862057995,"59":0.062005135914188186,"60":0.17116073880867158,"61":0.03253277495238622,"62":-0.05951939263968813,"63":0.15903939505531897,"64":0.18735359375087599,"65":-0.031479847546874176,"66":-0.1337457022487502,"67":0.053469002834770844,"68":0.03217477458006356,"69":0.08923658644633368,"70":-0.0021405885572300873,"71":0.035315657498165336,"72":0.20902935200486017,"73":-0.06727321356750818,"74":-0.23787569983954024,"75":0.08959766066455464,"76":0.018892438892332945,"77":-0.0687538953691776,"78":0.08700368972995813,"79":0.21764122153216275,"80":-0.06417784283704471,"81":-0.1324548413583679,"82":0.000024186720930771124,"83":-0.13973864671971814,"84":0.08875151203771013,"85":0.14326737387134197,"86":-0.3523649863189427,"87":-0.10557382085689307,"88":0.01634705580527177,"89":-0.19351408724411154,"90":0.09235591702524308,"91":-0.06632099703490077,"92":-0.21525699162515274,"93":-0.013385896173955558,"94":-0.11605501214770282,"95":-0.1724465999654319,"96":0.006446775902725252,"97":-0.1015864464811916,"98":0.01609185585228465,"99":-0.04350980426881839,"100":-0.2345356774867339,"101":-0.09007254069905869,"102":-0.21969164401246502,"103":-0.25827127688331086,"104":0.15210524028078792,"105":-0.08098177395535236,"106":-0.16727092383335931,"107":0.0473202471776512,"108":-0.08319719091595228,"109":-0.26220314681293316,"110":-0.17851368027193742,"111":-0.14929550842475725,"112":0.008349737596694702,"113":-0.0783276264640818,"114":-0.16656443747886668,"115":0.03427352916765852,"116":-0.029963300565154494,"117":-0.24503960257929086,"118":-0.2632451670036325,"119":-0.1362049829012663,"120":-0.11054081728231367,"121":-0.17347654660131095,"122":0.0006193624766344151,"123":-0.08067920557890779,"124":0.0009110624836609018,"125":-0.12239588644278274,"126":-0.3049652056030748,"127":-0.4010485759110204,"128":-0.009491036398274392,"129":-0.10492381358774933,"130":0.06554603561616901,"131":-0.05965673130124963,"132":-0.0007876602506620399,"133":0.05490601623755152,"134":-0.17275621240723868,"135":-0.33519359445758234,"136":-0.07246853938591141,"137":-0.08278736006568313,"138":0.10352135576339531,"139":-0.062234441114371236,"140":-0.14625359824747045,"141":-0.014290772463532065,"142":-0.1713926806193362,"143":-0.2925820856342009,"144":-0.09969630326775056,"145":-0.29885470378775353,"146":-0.08082835931487847,"147":-0.12934518497037678,"148":-0.03752352028049207,"149":-0.1640926505772771,"150":-0.15200892157520784,"151":-0.3084901857868912,"152":-0.04107250631471497,"153":-0.012366087048085218,"154":-0.1710637864766637,"155":-0.012391029910198812,"156":-0.12664085085209806,"157":-0.12462049011080248,"158":-0.24660546517059653,"159":-0.2651197655824049,"160":0.03245434842891955,"161":-0.05018786349759692,"162":0.12299977586738736,"163":0.052849975705767833,"164":0.1734214107721162,"165":0.060579765305812,"166":-0.3096263793721724,"167":0.13420959128529597,"168":-0.24046852613386246,"169":-0.08447650930305138,"170":0.057670325918144034,"171":0.011135918650545898,"172":0.2533549982135614,"173":0.17610036462790254,"174":-0.1567053233379705,"175":0.022519989080832775,"176":-0.09453841405287058,"177":0.021067971278206206,"178":0.10969028772930571,"179":-0.054062095626222405,"180":0.10789340440304435,"181":0.10701420588715299,"182":0.04396400390618184,"183":-0.07633085388124686,"184":-0.09216520864103618,"185":-0.07920976656933809,"186":0.14045459421471157,"187":-0.0016243931088632296,"188":-0.12263166407657446,"189":-0.09986547260074331,"190":0.2034420602256244,"191":-0.20175388724148863,"192":-0.058740807783466645,"193":0.22371037805964927,"194":-0.13886892678802457,"195":-0.12598849497640296,"196":-0.2394591928814018,"197":-0.23436105474998598,"198":0.03833133440730456,"199":-0.20696464940436182}}],"biases":{"sx":1,"sy":1,"depth":16,"w":{"0":0.04520378594694943,"1":-0.2070734210534895,"2":0.0862667584692217,"3":0.038920400651796416,"4":0.14190773788312613,"5":0.159880756622158,"6":-0.31861702924805324,"7":-0.546286021142232,"8":0.009708369399323655,"9":0.07189745803019,"10":-0.4939552193974454,"11":0.12248018173321716,"12":0.08734611086263151,"13":-0.5358581377481625,"14":0.04943882606306684,"15":0.0561812231603324}}},{"out_depth":16,"out_sx":12,"out_sy":12,"layer_type":"relu"},{"sx":3,"sy":3,"stride":3,"in_depth":16,"out_depth":16,"out_sx":4,"out_sy":4,"layer_type":"pool"},{"out_depth":16,"out_sx":4,"out_sy":4,"layer_type":"dropout","drop_prob":0.5},{"out_depth":10,"out_sx":1,"out_sy":1,"layer_type":"fc","num_inputs":256,"l1_decay_mul":0,"l2_decay_mul":1,"filters":[{"sx":1,"sy":1,"depth":256,"w":{"0":-0.014411255908211608,"1":-0.05860981047691658,"2":-0.19431600184141132,"3":-0.06011493235932911,"4":-0.02768903977341925,"5":0.009719511518396147,"6":-0.029192323841240615,"7":0.014990205723242986,"8":-0.011177495133042979,"9":-0.02144725785664252,"10":-0.005596408626904575,"11":-0.03730509376798958,"12":-0.01894325599189016,"13":-0.0900749888698172,"14":0.06238213363442299,"15":-0.009653439254993634,"16":-0.052560854382926965,"17":-0.04339956142722954,"18":-0.02520131147017226,"19":0.07226582299273315,"20":-0.05448723485937523,"21":-0.04349328736795968,"22":-0.02450607271709728,"23":0.04007771440068804,"24":-0.11746129223417988,"25":0.011186276807418462,"26":0.06405488483554586,"27":0.019116121985306843,"28":-0.01136510349076034,"29":-0.006947003143276451,"30":-0.08102055094397015,"31":0.017522687238047736,"32":0.07697750542022178,"33":-0.12905789102321757,"34":0.000028927153261374718,"35":0.05706119246392852,"36":-0.044053189877480754,"37":-0.06186287139748684,"38":-0.1830464508375459,"39":-0.2139735012685546,"40":0.1040599314027188,"41":-0.09876818763149284,"42":-0.011400965570126487,"43":-0.05931377159733891,"44":-0.009159283071698318,"45":-0.0666818277593132,"46":-0.04020351861649466,"47":-0.02211714913404731,"48":-0.08946577553639157,"49":-0.0826401647287595,"50":0.014945711395688094,"51":-0.018759818546844276,"52":-0.023188866464111037,"53":0.12182109125765514,"54":-0.022962233310470124,"55":-0.038363690179193395,"56":0.012549509726424261,"57":0.029068470825645894,"58":-0.022989006494939623,"59":-0.06506479673052927,"60":0.11557544545369701,"61":-0.026020684177987318,"62":-0.08099837211447727,"63":-0.022847079101019182,"64":-0.012096577334795003,"65":-0.1207008861434891,"66":-0.11872724978784553,"67":0.00951281335164508,"68":0.023949806479604867,"69":-0.04536136665629645,"70":-0.05999214295179977,"71":-0.1058020529525189,"72":-0.027586941468896564,"73":-0.023002798538438143,"74":-0.10568672701432633,"75":0.0016614007733620844,"76":0.056046886857146615,"77":-0.13681924204378504,"78":-0.17599002071865064,"79":0.10124918619358945,"80":-0.04497337762370336,"81":0.07397798212377447,"82":0.006152683488000378,"83":0.03391571084760922,"84":0.09770986862382525,"85":-0.024850157454368048,"86":-0.06826119418098414,"87":-0.02308167336816487,"88":-0.11968510578081189,"89":0.029221269603798387,"90":-0.05966908084075345,"91":0.08882757638718745,"92":-0.11893545055118285,"93":-0.06861318499386194,"94":-0.006383810021791659,"95":0.0175277865292427,"96":-0.05411886965077178,"97":-0.025583418000324026,"98":-0.047965621937765365,"99":0.005978377271466029,"100":-0.07247959832756525,"101":0.10810017063810091,"102":-0.06864647249951292,"103":-0.06745738858598206,"104":0.03550837419752704,"105":-0.049748421678555074,"106":-0.029751696023058667,"107":0.0063067572985814726,"108":-0.023644638457785513,"109":-0.1371515235784052,"110":-0.05358176303378267,"111":-0.13161972355586982,"112":-0.08131757365160014,"113":-0.16952026678926477,"114":-0.019316979583116036,"115":-0.008431666655961881,"116":0.003168381904398864,"117":-0.024818285306287345,"118":-0.12292409451619672,"119":-0.1290512525781826,"120":-0.09364337762422849,"121":-0.10867252562047905,"122":0.06368502568949433,"123":-0.02088472397330157,"124":0.019536728751680575,"125":-0.05968602965200249,"126":-0.06819805863883494,"127":-0.06457998009137149,"128":-0.02134597939878333,"129":-0.08143136076174456,"130":-0.05231104785607779,"131":0.08831061220037986,"132":-0.013512488618808029,"133":-0.08032965517707613,"134":-0.1299911046372368,"135":-0.020099708838897796,"136":-0.008290860946758601,"137":-0.029139640615655084,"138":-0.003546773293311769,"139":-0.06229281371342904,"140":-0.01612994292758607,"141":0.012092270026107256,"142":-0.03379458966799968,"143":-0.04632308803748466,"144":0.08134234629394058,"145":-0.05918069003107564,"146":0.0317403997068793,"147":0.0697163436664481,"148":0.07019524508999671,"149":0.026402173900739085,"150":-0.09303432240157833,"151":-0.12413128270495488,"152":-0.01633668271524779,"153":0.024817988575082498,"154":-0.0881687361579841,"155":0.06016520189262206,"156":0.07884345669259772,"157":-0.04200286146607192,"158":-0.08670637959678112,"159":-0.08063105654343916,"160":-0.007458580169832913,"161":-0.03610134827874501,"162":-0.1204989569245506,"163":-0.08481433167778106,"164":0.0788333412010085,"165":0.05979442297542766,"166":-0.110425724929036,"167":0.024340486683469807,"168":0.016582057079553233,"169":-0.08978436446118361,"170":-0.13217566890483098,"171":-0.0796418187651282,"172":-0.0632417310859241,"173":-0.09658866214958382,"174":0.05301312519617589,"175":0.01479112997548538,"176":-0.11066338330949993,"177":-0.006255964129460546,"178":-0.05337689143729922,"179":-0.11876255976264297,"180":0.02268078491153568,"181":-0.0432240433775729,"182":-0.07561097605344459,"183":-0.03509602348702164,"184":-0.059634232073610724,"185":-0.009420983529163691,"186":-0.08281850845405153,"187":-0.010838214995576209,"188":-0.04234166023227206,"189":-0.12082191592507437,"190":-0.018311196366665856,"191":0.006915401317544616,"192":-0.010461467928779508,"193":0.008540995290776203,"194":-0.03966851385650685,"195":-0.09365583224180614,"196":0.034687991023407576,"197":0.017363763254467805,"198":-0.07172581994065216,"199":-0.0807357609157181,"200":-0.07430194352643572,"201":-0.08353223977483505,"202":-0.16934344111563188,"203":0.07958401696910784,"204":0.08228131925622424,"205":-0.19733989673568633,"206":0.1620970053141294,"207":0.028935737536753117,"208":0.033978067048651604,"209":-0.048657669349517665,"210":-0.04139216460185749,"211":0.026446289245100892,"212":-0.00877253768690423,"213":-0.034657941637310986,"214":-0.07407077154713869,"215":0.030165218001516288,"216":-0.09322661141576735,"217":0.03018513522121773,"218":-0.04485302479762787,"219":0.02995705908492893,"220":-0.0020497193683885976,"221":-0.02664157104584316,"222":0.009527845060740996,"223":-0.0677767314113095,"224":0.05196175312368615,"225":-0.031693475844849786,"226":0.03506575933517927,"227":-0.06593684248509048,"228":0.06152278960540682,"229":-0.03551459939291053,"230":-0.039153257301524344,"231":-0.18732219313628742,"232":-0.07546696460998217,"233":0.017822614991176045,"234":0.013359551777427894,"235":-0.07893180227118107,"236":-0.04304173886733285,"237":-0.16345533275373905,"238":0.06164993055616614,"239":-0.01603276621029908,"240":-0.044142988045438605,"241":-0.10441886096549725,"242":-0.10770388425308546,"243":-0.16565962236288728,"244":-0.05079110874696919,"245":-0.036028957722412776,"246":-0.21472680439690436,"247":-0.1142947787292376,"248":0.05721775587682001,"249":-0.03092393209016442,"250":-0.11410155014797389,"251":0.016410262852300683,"252":0.0031941656661426503,"253":-0.10210734257190562,"254":-0.10592231930941863,"255":-0.060438101219673225}},{"sx":1,"sy":1,"depth":256,"w":{"0":0.02540403316061888,"1":0.054591500894471866,"2":-0.0158253950742358,"3":0.05000941415799979,"4":0.015603212603425383,"5":-0.02890821325731875,"6":-0.017861746544275227,"7":0.08649690053990006,"8":-0.16091023329113927,"9":-0.07799365698210343,"10":-0.010930908899718749,"11":-0.1750241779305308,"12":0.06627187008322327,"13":0.3465857614797281,"14":-0.13675563703637394,"15":-0.03957087802280808,"16":-0.02337026386340845,"17":-0.12106769767594065,"18":0.11625210392393061,"19":-0.025629667459815673,"20":0.022080188233881703,"21":0.014712888876764476,"22":-0.27968219362144303,"23":-0.0731718141999485,"24":-0.1921980338183176,"25":0.08125525819132007,"26":0.06842552253913577,"27":-0.10877801704195726,"28":0.051897859205296354,"29":0.056929885578444084,"30":-0.1423471890621198,"31":0.014145875348263373,"32":0.011372109009548529,"33":-0.037315146657976445,"34":0.09452617247540071,"35":0.009556553448474022,"36":0.07308916694417221,"37":-0.08063674243556283,"38":0.0779547112991892,"39":-0.08030549639888415,"40":-0.1417306745613612,"41":0.04714970963380918,"42":-0.04719373892563289,"43":-0.04383303244819362,"44":-0.04675201361151779,"45":0.0776699717762768,"46":-0.08689414765280569,"47":0.14658663672542954,"48":0.046047445614985784,"49":-0.002173160644437123,"50":0.027206524674444114,"51":-0.022035913512541035,"52":0.11192182773639803,"53":0.03994171948308651,"54":0.12466403080021671,"55":0.038212814109415,"56":0.07770716214574297,"57":-0.014298755751954901,"58":-0.08745677169499293,"59":0.03077502261026546,"60":0.14588714203152367,"61":-0.0045369801742989255,"62":0.038327377619257946,"63":0.16555510920834407,"64":0.02045128299988522,"65":0.0947614558766482,"66":0.16080977602384652,"67":0.0313552965342394,"68":-0.1694299172584161,"69":-0.14111208139576858,"70":-0.23367159947941182,"71":0.0004846371771108555,"72":-0.10297078592383963,"73":0.14693346111392186,"74":0.012488272897028885,"75":-0.033177169631156155,"76":0.10563910284641496,"77":0.08019538104566959,"78":0.12576938518900357,"79":0.05165454037380626,"80":0.04353220717325826,"81":-0.14075780304964136,"82":0.20185835287503906,"83":0.17743478156107534,"84":-0.11691881091121768,"85":-0.05101148102338441,"86":-0.4487271593846662,"87":-0.5449074289632888,"88":0.1489412030832388,"89":0.1239052864319599,"90":-0.4919967116249636,"91":-0.03819050810795725,"92":0.13573882272916457,"93":-0.17113736600977025,"94":0.21589277777373753,"95":0.060902118912794685,"96":0.08830669668087052,"97":-0.23535440757664244,"98":0.28312682065552447,"99":0.3718659962757418,"100":0.2790139273697116,